{"learner":{"attributes":{"scikit_learn":"{\"_estimator_type\": \"classifier\"}"},"feature_names":[],"feature_types":[],"gradient_booster":{"model":{"cats":{"enc":[],"feature_segments":[],"sorted_idx":[]},"gbtree_model_param":{"num_parallel_tree":"1","num_trees":"500"},"iteration_indptr":[0,1,2,3,4,5,6,7,8,9,10,11,12,13,14,15,16,17,18,19,20,21,22,23,24,25,26,27,28,29,30,31,32,33,34,35,36,37,38,39,40,41,42,43,44,45,46,47,48,49,50,51,52,53,54,55,56,57,58,59,60,61,62,63,64,65,66,67,68,69,70,71,72,73,74,75,76,77,78,79,80,81,82,83,84,85,86,87,88,89,90,91,92,93,94,95,96,97,98,99,100,101,102,103,104,105,106,107,108,109,110,111,112,113,114,115,116,117,118,119,120,121,122,123,124,125,126,127,128,129,130,131,132,133,134,135,136,137,138,139,140,141,142,143,144,145,146,147,148,149,150,151,152,153,154,155,156,157,158,159,160,161,162,163,164,165,166,167,168,169,170,171,172,173,174,175,176,177,178,179,180,181,182,183,184,185,186,187,188,189,190,191,192,193,194,195,196,197,198,199,200,201,202,203,204,205,206,207,208,209,210,211,212,213,214,215,216,217,218,219,220,221,222,223,224,225,226,227,228,229,230,231,232,233,234,235,236,237,238,239,240,241,242,243,244,245,246,247,248,249,250,251,252,253,254,255,256,257,258,259,260,261,262,263,264,265,266,267,268,269,270,271,272,273,274,275,276,277,278,279,280,281,282,283,284,285,286,287,288,289,290,291,292,293,294,295,296,297,298,299,300,301,302,303,304,305,306,307,308,309,310,311,312,313,314,315,316,317,318,319,320,321,322,323,324,325,326,327,328,329,330,331,332,333,334,335,336,337,338,339,340,341,342,343,344,345,346,347,348,349,350,351,352,353,354,355,356,357,358,359,360,361,362,363,364,365,366,367,368,369,370,371,372,373,374,375,376,377,378,379,380,381,382,383,384,385,386,387,388,389,390,391,392,393,394,395,396,397,398,399,400,401,402,403,404,405,406,407,408,409,410,411,412,413,414,415,416,417,418,419,420,421,422,423,424,425,426,427,428,429,430,431,432,433,434,435,436,437,438,439,440,441,442,443,444,445,446,447,448,449,450,451,452,453,454,455,456,457,458,459,460,461,462,463,464,465,466,467,468,469,470,471,472,473,474,475,476,477,478,479,480,481,482,483,484,485,486,487,488,489,490,491,492,493,494,495,496,497,498,499,500],"tree_info":[0,0,0,0,0,0,0,0,0,0,0,0,0,0,0,0,0,0,0,0,0,0,0,0,0,0,0,0,0,0,0,0,0,0,0,0,0,0,0,0,0,0,0,0,0,0,0,0,0,0,0,0,0,0,0,0,0,0,0,0,0,0,0,0,0,0,0,0,0,0,0,0,0,0,0,0,0,0,0,0,0,0,0,0,0,0,0,0,0,0,0,0,0,0,0,0,0,0,0,0,0,0,0,0,0,0,0,0,0,0,0,0,0,0,0,0,0,0,0,0,0,0,0,0,0,0,0,0,0,0,0,0,0,0,0,0,0,0,0,0,0,0,0,0,0,0,0,0,0,0,0,0,0,0,0,0,0,0,0,0,0,0,0,0,0,0,0,0,0,0,0,0,0,0,0,0,0,0,0,0,0,0,0,0,0,0,0,0,0,0,0,0,0,0,0,0,0,0,0,0,0,0,0,0,0,0,0,0,0,0,0,0,0,0,0,0,0,0,0,0,0,0,0,0,0,0,0,0,0,0,0,0,0,0,0,0,0,0,0,0,0,0,0,0,0,0,0,0,0,0,0,0,0,0,0,0,0,0,0,0,0,0,0,0,0,0,0,0,0,0,0,0,0,0,0,0,0,0,0,0,0,0,0,0,0,0,0,0,0,0,0,0,0,0,0,0,0,0,0,0,0,0,0,0,0,0,0,0,0,0,0,0,0,0,0,0,0,0,0,0,0,0,0,0,0,0,0,0,0,0,0,0,0,0,0,0,0,0,0,0,0,0,0,0,0,0,0,0,0,0,0,0,0,0,0,0,0,0,0,0,0,0,0,0,0,0,0,0,0,0,0,0,0,0,0,0,0,0,0,0,0,0,0,0,0,0,0,0,0,0,0,0,0,0,0,0,0,0,0,0,0,0,0,0,0,0,0,0,0,0,0,0,0,0,0,0,0,0,0,0,0,0,0,0,0,0,0,0,0,0,0,0,0,0,0,0,0,0,0,0,0,0,0,0,0,0,0,0,0,0,0,0,0,0,0,0,0,0,0,0,0,0,0,0,0,0,0,0,0,0,0,0,0,0,0,0,0,0,0,0,0,0,0,0,0,0,0,0,0,0,0,0,0,0,0,0,0,0,0,0],"trees":[{"base_weights":[-2.7518068E-3,-4.6338058E-1,4.804752E-1,-1.2079367E-1,-9.2331845E-1,9.0347517E-1,1.1016814E-1,-2.5399609E-2,4.0697467E-2,-1.3202006E-1,-5.8994688E-2,5.1263012E-2,1.1760645E-1,-1.6017986E-2,4.6793617E-2],"categories":[],"categories_nodes":[],"categories_segments":[],"categories_sizes":[],"default_left":[0,0,0,0,0,0,0,0,0,0,0,0,0,0,0],"id":0,"left_children":[1,3,5,7,9,11,13,-1,-1,-1,-1,-1,-1,-1,-1],"loss_changes":[1.0761582E3,3.899101E2,3.69492E2,9.9911766E1,1.3900574E2,1.1672455E2,1.2187191E2,0E0,0E0,0E0,0E0,0E0,0E0,0E0,0E0],"parents":[2147483647,0,0,1,1,2,2,3,3,4,4,5,5,6,6],"right_children":[2,4,6,8,10,12,14,-1,-1,-1,-1,-1,-1,-1,-1],"split_conditions":[5.2286792E-5,9.9992704E-1,1.0002602E0,1.3656582E-4,7.0031056E-5,-5.3326297E-4,2.4561912E-3,-2.5399609E-2,4.0697467E-2,-1.3202006E-1,-5.8994688E-2,5.1263012E-2,1.1760645E-1,-1.6017986E-2,4.6793617E-2],"split_indices":[0,3,3,5,5,5,5,0,0,0,0,0,0,0,0],"split_type":[0,0,0,0,0,0,0,0,0,0,0,0,0,0,0],"sum_hessian":[4.8327476E3,2.4742488E3,2.3584988E3,1.4187493E3,1.0554995E3,1.1002495E3,1.2582494E3,1.1332495E3,2.8549988E2,4.8049976E2,5.7499976E2,4.532498E2,6.469997E2,7.1699963E2,5.4124976E2],"tree_param":{"num_deleted":"0","num_feature":"32","num_nodes":"15","size_leaf_vector":"1"}},{"base_weights":[1.0739303E-2,-3.7950706E-1,4.653928E-1,8.834873E-3,-7.2936845E-1,7.819479E-1,2.4941463E-2,-1.9748772E-2,4.203133E-2,-1.1103188E-1,-4.2247165E-2,5.579405E-2,1.1932021E-1,-3.9197978E-2,3.493825E-2],"categories":[],"categories_nodes":[],"categories_segments":[],"categories_sizes":[],"default_left":[0,0,0,0,0,0,0,0,0,0,0,0,0,0,0],"id":1,"left_children":[1,3,5,7,9,11,13,-1,-1,-1,-1,-1,-1,-1,-1],"loss_changes":[8.622864E2,3.553269E2,3.1295645E2,1.0539306E2,1.6037787E2,1.1965039E2,1.272473E2,0E0,0E0,0E0,0E0,0E0,0E0,0E0,0E0],"parents":[2147483647,0,0,1,1,2,2,3,3,4,4,5,5,6,6],"right_children":[2,4,6,8,10,12,14,-1,-1,-1,-1,-1,-1,-1,-1],"split_conditions":[1.4631382E-4,9.9967605E-1,1.0006052E0,-4.8022363E-3,7.976564E-4,2.97465E-3,1.0064052E-2,-1.9748772E-2,4.203133E-2,-1.1103188E-1,-4.2247165E-2,5.579405E-2,1.1932021E-1,-3.9197978E-2,3.493825E-2],"split_indices":[0,3,3,8,8,8,8,0,0,0,0,0,0,0,0],"split_type":[0,0,0,0,0,0,0,0,0,0,0,0,0,0,0],"sum_hessian":[4.857958E3,2.6142302E3,2.2437278E3,1.2394407E3,1.3747896E3,1.3050238E3,9.387041E2,8.258599E2,4.1358075E2,6.1222186E2,7.6256775E2,8.4636896E2,4.5865488E2,4.1071228E2,5.279918E2],"tree_param":{"num_deleted":"0","num_feature":"32","num_nodes":"15","size_leaf_vector":"1"}},{"base_weights":[-9.505124E-3,-4.8434532E-1,3.3320415E-1,-4.488441E-2,-8.0441475E-1,8.154655E-1,9.592413E-2,-2.8737953E-2,3.389546E-2,-1.1505361E-1,-5.4923046E-2,5.0508946E-2,1.20452546E-1,-3.4994118E-2,2.6253698E-2],"categories":[],"categories_nodes":[],"categories_segments":[],"categories_sizes":[],"default_left":[0,0,0,0,0,0,0,0,0,0,0,0,0,0,0],"id":2,"left_children":[1,3,5,7,9,11,13,-1,-1,-1,-1,-1,-1,-1,-1],"loss_changes":[7.8252057E2,2.8349258E2,3.1951837E2,7.926089E1,1.0237537E2,1.105918E2,1.3923447E2,0E0,0E0,0E0,0E0,0E0,0E0,0E0,0E0],"parents":[2147483647,0,0,1,1,2,2,3,3,4,4,5,5,6,6],"right_children":[2,4,6,8,10,12,14,-1,-1,-1,-1,-1,-1,-1,-1],"split_conditions":[-2.4728867E-4,9.9939597E-1,9.99818E-1,-9.0397755E-3,-1.0770288E-3,-3.6996198E-3,7.976564E-4,-2.8737953E-2,3.389546E-2,-1.1505361E-1,-5.4923046E-2,5.0508946E-2,1.20452546E-1,-3.4994118E-2,2.6253698E-2],"split_indices":[1,3,3,8,8,8,8,0,0,0,0,0,0,0,0],"split_type":[0,0,0,0,0,0,0,0,0,0,0,0,0,0,0],"sum_hessian":[4.8066504E3,2.0147307E3,2.7919197E3,8.494969E2,1.1652339E3,9.198756E2,1.8720442E3,5.2075476E2,3.2874213E2,4.9301727E2,6.7221655E2,5.129575E2,4.0691812E2,5.0895407E2,1.3630901E3],"tree_param":{"num_deleted":"0","num_feature":"32","num_nodes":"15","size_leaf_vector":"1"}},{"base_weights":[6.1889454E-3,-3.377639E-1,3.8518077E-1,-1.782889E-1,-7.0256346E-1,5.629825E-1,1.6707431E-1,-3.8971473E-2,2.231865E-2,-6.1671503E-2,-9.609707E-2,6.550511E-2,2.8902078E-2,-4.119628E-2,3.68749E-2],"categories":[],"categories_nodes":[],"categories_segments":[],"categories_sizes":[],"default_left":[0,0,0,0,0,0,0,0,0,0,0,0,0,0,0],"id":3,"left_children":[1,3,5,7,9,11,13,-1,-1,-1,-1,-1,-1,-1,-1],"loss_changes":[6.2713666E2,1.4660062E2,8.866864E1,1.4916164E2,1.641867E1,3.1605438E1,1.2035772E2,0E0,0E0,0E0,0E0,0E0,0E0,0E0,0E0],"parents":[2147483647,0,0,1,1,2,2,3,3,4,4,5,5,6,6],"right_children":[2,4,6,8,10,12,14,-1,-1,-1,-1,-1,-1,-1,-1],"split_conditions":[1.05294326E-4,2.7241687E-5,4.3719306E-4,-6.6521857E-4,1.0028191E0,6.100344E-1,8.145602E-4,-3.8971473E-2,2.231865E-2,-6.1671503E-2,-9.609707E-2,6.550511E-2,2.8902078E-2,-4.119628E-2,3.68749E-2],"split_indices":[0,22,22,0,7,26,0,0,0,0,0,0,0,0,0],"split_type":[0,0,0,0,0,0,0,0,0,0,0,0,0,0,0],"sum_hessian":[4.808981E3,2.521086E3,2.287895E3,1.7552523E3,7.658336E2,1.2595338E3,1.0283611E3,1.1497814E3,6.0547095E2,5.7739655E2,1.8843709E2,9.416788E2,3.178551E2,2.6537848E2,7.6298267E2],"tree_param":{"num_deleted":"0","num_feature":"32","num_nodes":"15","size_leaf_vector":"1"}},{"base_weights":[-1.3119124E-2,-3.6806038E-1,3.018399E-1,1.4156153E-2,-6.328449E-1,5.874371E-1,-1.00754805E-1,-2.5499234E-2,2.9324174E-2,-1.0355183E-1,-4.300342E-2,3.887267E-2,9.922101E-2,-4.54085E-2,1.6286705E-2],"categories":[],"categories_nodes":[],"categories_segments":[],"categories_sizes":[],"default_left":[0,0,0,0,0,0,0,0,0,0,0,0,0,0,0],"id":4,"left_children":[1,3,5,7,9,11,13,-1,-1,-1,-1,-1,-1,-1,-1],"loss_changes":[5.350082E2,2.2772455E2,2.916153E2,6.931661E1,1.081087E2,1.1893991E2,9.817165E1,0E0,0E0,0E0,0E0,0E0,0E0,0E0,0E0],"parents":[2147483647,0,0,1,1,2,2,3,3,4,4,5,5,6,6],"right_children":[2,4,6,8,10,12,14,-1,-1,-1,-1,-1,-1,-1,-1],"split_conditions":[-8.402704E-5,9.994079E-1,1.0005531E0,-1.1815648E-2,-1.1848137E-3,2.97465E-3,9.099147E-3,-2.5499234E-2,2.9324174E-2,-1.0355183E-1,-4.300342E-2,3.887267E-2,9.922101E-2,-4.54085E-2,1.6286705E-2],"split_indices":[0,3,3,8,0,8,8,0,0,0,0,0,0,0,0],"split_type":[0,0,0,0,0,0,0,0,0,0,0,0,0,0,0],"sum_hessian":[4.783755E3,2.2490417E3,2.5347134E3,9.208055E2,1.3282362E3,1.4825476E3,1.0521656E3,4.6879178E2,4.5201367E2,4.435259E2,8.8471027E2,9.957006E2,4.8684702E2,4.4927866E2,6.0288696E2],"tree_param":{"num_deleted":"0","num_feature":"32","num_nodes":"15","size_leaf_vector":"1"}},{"base_weights":[8.858118E-3,-2.722049E-1,3.3919352E-1,-8.971776E-2,-7.826688E-1,6.691684E-1,5.5863384E-2,4.3460947E-2,-1.9787107E-2,-1.2168759E-1,-5.1247563E-2,3.514453E-2,9.325009E-2,-3.239926E-2,2.4753468E-2],"categories":[],"categories_nodes":[],"categories_segments":[],"categories_sizes":[],"default_left":[0,0,0,0,0,0,0,0,0,0,0,0,0,0,0],"id":5,"left_children":[1,3,5,7,9,11,13,-1,-1,-1,-1,-1,-1,-1,-1],"loss_changes":[4.4465616E2,2.4097389E2,2.0579617E2,1.0824461E2,7.930783E1,8.476123E1,8.640245E1,0E0,0E0,0E0,0E0,0E0,0E0,0E0,0E0],"parents":[2147483647,0,0,1,1,2,2,3,3,4,4,5,5,6,6],"right_children":[2,4,6,8,10,12,14,-1,-1,-1,-1,-1,-1,-1,-1],"split_conditions":[1.627044E-4,1.0003672E0,1.0002913E0,9.980796E-1,3.0997952E-3,-3.418667E-3,5.152496E-3,4.3460947E-2,-1.9787107E-2,-1.2168759E-1,-5.1247563E-2,3.514453E-2,9.325009E-2,-3.239926E-2,2.4753468E-2],"split_indices":[0,3,3,3,8,8,8,0,0,0,0,0,0,0,0],"split_type":[0,0,0,0,0,0,0,0,0,0,0,0,0,0,0],"sum_hessian":[4.787233E3,2.5866123E3,2.2006208E3,1.9062998E3,6.8031256E2,1.0159974E3,1.1846234E3,3.254585E2,1.5808413E3,2.5960968E2,4.2070288E2,4.6150464E2,5.5449274E2,3.970519E2,7.875715E2],"tree_param":{"num_deleted":"0","num_feature":"32","num_nodes":"15","size_leaf_vector":"1"}},{"base_weights":[3.2912297E-3,-3.5994327E-1,2.2208254E-1,-8.8870905E-2,-5.844934E-1,6.133087E-1,1.39488E-1,-3.313867E-2,3.2128703E-2,-3.5184275E-2,-6.713415E-2,7.64525E-2,4.2146806E-2,-9.199851E-3,3.659042E-2],"categories":[],"categories_nodes":[],"categories_segments":[],"categories_sizes":[],"default_left":[0,0,0,0,0,0,0,0,0,0,0,0,0,0,0],"id":6,"left_children":[1,3,5,7,9,11,13,-1,-1,-1,-1,-1,-1,-1,-1],"loss_changes":[3.7415073E2,1.0767311E2,9.48551E1,7.9981285E1,1.931778E1,1.452684E1,1.27252556E2,0E0,0E0,0E0,0E0,0E0,0E0,0E0,0E0],"parents":[2147483647,0,0,1,1,2,2,3,3,4,4,5,5,6,6],"right_children":[2,4,6,8,10,12,14,-1,-1,-1,-1,-1,-1,-1,-1],"split_conditions":[-4.1431494E-4,-5.386437E-4,-3.5179802E-4,-1.393299E-3,9.9743724E-1,1.0005274E0,7.83607E-4,-3.313867E-2,3.2128703E-2,-3.5184275E-2,-6.713415E-2,7.64525E-2,4.2146806E-2,-9.199851E-3,3.659042E-2],"split_indices":[0,22,22,0,7,7,0,0,0,0,0,0,0,0,0],"split_type":[0,0,0,0,0,0,0,0,0,0,0,0,0,0,0],"sum_hessian":[4.7059185E3,1.7687754E3,2.937143E3,8.020059E2,9.667695E2,5.1087097E2,2.4262722E3,5.0412305E2,2.9788287E2,2.641661E2,7.026034E2,2.8401453E2,2.2685645E2,1.1999966E3,1.2262755E3],"tree_param":{"num_deleted":"0","num_feature":"32","num_nodes":"15","size_leaf_vector":"1"}},{"base_weights":[-4.831608E-4,-1.9868001E-1,3.3385947E-1,-1.3910143E-2,-6.1778605E-1,6.000947E-1,-5.4033227E-2,-1.5460126E-2,4.0958297E-2,-1.0513922E-1,-4.2562533E-2,3.916209E-2,9.2163816E-2,-3.299493E-2,1.8588008E-2],"categories":[],"categories_nodes":[],"categories_segments":[],"categories_sizes":[],"default_left":[0,0,0,0,0,0,0,0,0,0,0,0,0,0,0],"id":7,"left_children":[1,3,5,7,9,11,13,-1,-1,-1,-1,-1,-1,-1,-1],"loss_changes":[3.1308145E2,2.2969281E2,1.8162198E2,1.2278281E2,7.517325E1,6.954086E1,4.7496918E1,0E0,0E0,0E0,0E0,0E0,0E0,0E0,0E0],"parents":[2147483647,0,0,1,1,2,2,3,3,4,4,5,5,6,6],"right_children":[2,4,6,8,10,12,14,-1,-1,-1,-1,-1,-1,-1,-1],"split_conditions":[4.7611727E-4,1.0002803E0,1.0007788E0,7.976564E-4,6.969022E-4,2.7802153E-3,1.2294478E-2,-1.5460126E-2,4.0958297E-2,-1.0513922E-1,-4.2562533E-2,3.916209E-2,9.2163816E-2,-3.299493E-2,1.8588008E-2],"split_indices":[0,3,3,8,8,8,8,0,0,0,0,0,0,0,0],"split_type":[0,0,0,0,0,0,0,0,0,0,0,0,0,0,0],"sum_hessian":[4.7226396E3,2.9652554E3,1.7573845E3,2.0586836E3,9.0657166E2,1.0417909E3,7.155937E2,1.5457844E3,5.128992E2,2.7701733E2,6.295544E2,6.333647E2,4.0842618E2,3.3264957E2,3.8294412E2],"tree_param":{"num_deleted":"0","num_feature":"32","num_nodes":"15","size_leaf_vector":"1"}},{"base_weights":[-2.1103865E-3,-3.1413212E-1,1.750551E-1,4.456986E-1,-4.7142848E-1,5.663249E-1,-1.037905E-2,-2.2108583E-2,6.647181E-2,-8.433922E-2,-3.1731468E-2,3.956847E-2,9.712084E-2,-5.0991084E-2,9.122095E-3],"categories":[],"categories_nodes":[],"categories_segments":[],"categories_sizes":[],"default_left":[0,0,0,0,0,0,0,0,0,0,0,0,0,0,0],"id":8,"left_children":[1,3,5,7,9,11,13,-1,-1,-1,-1,-1,-1,-1,-1],"loss_changes":[2.5910828E2,2.0309804E2,2.1692322E2,4.274054E1,8.038159E1,6.603348E1,1.03042076E2,0E0,0E0,0E0,0E0,0E0,0E0,0E0,0E0],"parents":[2147483647,0,0,1,1,2,2,3,3,4,4,5,5,6,6],"right_children":[2,4,6,8,10,12,14,-1,-1,-1,-1,-1,-1,-1,-1],"split_conditions":[-4.6536623E-4,9.980796E-1,9.9979365E-1,-3.3642616E-2,-9.7871665E-3,1E0,-3.0007947E-3,-2.2108583E-2,6.647181E-2,-8.433922E-2,-3.1731468E-2,3.956847E-2,9.712084E-2,-5.0991084E-2,9.122095E-3],"split_indices":[0,3,3,8,8,15,8,0,0,0,0,0,0,0,0],"split_type":[0,0,0,0,0,0,0,0,0,0,0,0,0,0,0],"sum_hessian":[4.685246E3,1.6965426E3,2.9887036E3,2.906594E2,1.4058832E3,9.6033124E2,2.0283723E3,7.186466E1,2.1879472E2,4.1054178E2,9.953415E2,6.769883E2,2.8334296E2,3.4214514E2,1.6862272E3],"tree_param":{"num_deleted":"0","num_feature":"32","num_nodes":"15","size_leaf_vector":"1"}},{"base_weights":[-1.2068302E-2,-3.071741E-1,1.5377916E-1,1.2500536E-1,-5.699309E-1,4.650518E-1,-3.7826348E-2,-1.4695147E-3,6.258427E-2,-7.187601E-2,-1.1723281E-2,2.2920048E-2,7.419004E-2,-3.5528194E-2,1.165841E-2],"categories":[],"categories_nodes":[],"categories_segments":[],"categories_sizes":[],"default_left":[0,0,0,0,0,0,0,0,0,0,0,0,0,0,0],"id":9,"left_children":[1,3,5,7,9,11,13,-1,-1,-1,-1,-1,-1,-1,-1],"loss_changes":[2.2834416E2,1.9069193E2,1.7816528E2,4.4474003E1,7.026227E1,7.4146576E1,9.0716156E1,0E0,0E0,0E0,0E0,0E0,0E0,0E0,0E0],"parents":[2147483647,0,0,1,1,2,2,3,3,4,4,5,5,6,6],"right_children":[2,4,6,8,10,12,14,-1,-1,-1,-1,-1,-1,-1,-1],"split_conditions":[-4.6536623E-4,9.9909174E-1,9.99961E-1,-3.3258342E-3,7.961575E-3,-3.6996198E-3,2.7802153E-3,-1.4695147E-3,6.258427E-2,-7.187601E-2,-1.1723281E-2,2.2920048E-2,7.419004E-2,-3.5528194E-2,1.165841E-2],"split_indices":[0,3,3,14,8,8,8,0,0,0,0,0,0,0,0],"split_type":[0,0,0,0,0,0,0,0,0,0,0,0,0,0,0],"sum_hessian":[4.663591E3,1.6776179E3,2.9859731E3,6.34509E2,1.0431089E3,1.137165E3,1.8488081E3,4.9688232E2,1.3762665E2,7.845817E2,2.5852722E2,6.150354E2,5.221296E2,6.045665E2,1.2442416E3],"tree_param":{"num_deleted":"0","num_feature":"32","num_nodes":"15","size_leaf_vector":"1"}},{"base_weights":[1.6352149E-3,-1.6303363E-1,2.9201433E-1,-1.3592607E-2,-5.673905E-1,4.9040994E-1,-2.0598686E-1,-1.3063799E-2,4.237247E-2,-8.247584E-2,-2.606156E-2,3.2551065E-2,7.816487E-2,-6.831693E-2,-7.959283E-3],"categories":[],"categories_nodes":[],"categories_segments":[],"categories_sizes":[],"default_left":[0,0,0,0,0,0,0,0,0,0,0,0,0,0,0],"id":10,"left_children":[1,3,5,7,9,11,13,-1,-1,-1,-1,-1,-1,-1,-1],"loss_changes":[2.2083388E2,1.780795E2,1.6522308E2,1.1025222E2,6.257315E1,5.7156097E1,2.870443E1,0E0,0E0,0E0,0E0,0E0,0E0,0E0,0E0],"parents":[2147483647,0,0,1,1,2,2,3,3,4,4,5,5,6,6],"right_children":[2,4,6,8,10,12,14,-1,-1,-1,-1,-1,-1,-1,-1],"split_conditions":[5.308463E-4,1.0003786E0,1.0012378E0,2.5129663E-3,8.347724E-3,1.5056651E-3,1.1455155E-3,-1.3063799E-2,4.237247E-2,-8.247584E-2,-2.606156E-2,3.2551065E-2,7.816487E-2,-6.831693E-2,-7.959283E-3],"split_indices":[0,3,3,8,8,0,0,0,0,0,0,0,0,0,0],"split_type":[0,0,0,0,0,0,0,0,0,0,0,0,0,0,0],"sum_hessian":[4.6163765E3,2.9461216E3,1.6702548E3,2.1518726E3,7.942491E2,1.1944288E3,4.7582593E2,1.6980901E3,4.5378244E2,4.3098608E2,3.63263E2,7.639807E2,4.3044812E2,9.871951E1,3.771064E2],"tree_param":{"num_deleted":"0","num_feature":"32","num_nodes":"15","size_leaf_vector":"1"}},{"base_weights":[8.935364E-3,-2.6093706E-1,1.5485607E-1,1.8151052E-1,-4.6624532E-1,4.9012604E-1,-8.37981E-3,-4.5596035E-3,6.277281E-2,-8.7066196E-2,-3.262174E-2,7.914048E-3,6.568293E-2,-3.3244688E-2,1.1171021E-2],"categories":[],"categories_nodes":[],"categories_segments":[],"categories_sizes":[],"default_left":[0,0,0,0,0,0,0,0,0,0,0,0,0,0,0],"id":11,"left_children":[1,3,5,7,9,11,13,-1,-1,-1,-1,-1,-1,-1,-1],"loss_changes":[1.8070029E2,1.4636789E2,1.6299725E2,5.182623E1,6.2022125E1,6.67643E1,7.802703E1,0E0,0E0,0E0,0E0,0E0,0E0,0E0,0E0],"parents":[2147483647,0,0,1,1,2,2,3,3,4,4,5,5,6,6],"right_children":[2,4,6,8,10,12,14,-1,-1,-1,-1,-1,-1,-1,-1],"split_conditions":[-5.11304E-4,9.988327E-1,9.99818E-1,-1.087481E-2,-8.825666E-3,-2.3739845E-3,1E0,-4.5596035E-3,6.277281E-2,-8.7066196E-2,-3.262174E-2,7.914048E-3,6.568293E-2,-3.3244688E-2,1.1171021E-2],"split_indices":[0,3,3,8,8,4,15,0,0,0,0,0,0,0,0],"split_type":[0,0,0,0,0,0,0,0,0,0,0,0,0,0,0],"sum_hessian":[4.5866074E3,1.6093723E3,2.9772354E3,5.1013235E2,1.09924E3,9.742407E2,2.0029945E3,3.38664E2,1.7146835E2,2.8137607E2,8.1786395E2,2.815615E2,6.9267926E2,5.4108624E2,1.4619083E3],"tree_param":{"num_deleted":"0","num_feature":"32","num_nodes":"15","size_leaf_vector":"1"}},{"base_weights":[4.753597E-3,-1.436058E-1,2.3478949E-1,1.524182E-1,-3.1245962E-1,4.2051306E-1,-1.4193478E-1,-1.5545244E-2,3.4277484E-2,-7.516751E-2,-2.0117847E-2,2.7892211E-2,7.6067284E-2,-5.2130844E-2,2.6608752E-3],"categories":[],"categories_nodes":[],"categories_segments":[],"categories_sizes":[],"default_left":[0,0,0,0,0,0,0,0,0,0,0,0,0,0,0],"id":12,"left_children":[1,3,5,7,9,11,13,-1,-1,-1,-1,-1,-1,-1,-1],"loss_changes":[1.5679362E2,1.3965503E2,1.260902E2,5.954641E1,8.6792465E1,5.7909195E1,3.8093674E1,0E0,0E0,0E0,0E0,0E0,0E0,0E0,0E0],"parents":[2147483647,0,0,1,1,2,2,3,3,4,4,5,5,6,6],"right_children":[2,4,6,8,10,12,14,-1,-1,-1,-1,-1,-1,-1,-1],"split_conditions":[4.147111E-4,9.9937797E-1,1.001034E0,-3.3289923E-3,-2.6118353E-3,6.749083E-3,1.2798407E-3,-1.5545244E-2,3.4277484E-2,-7.516751E-2,-2.0117847E-2,2.7892211E-2,7.6067284E-2,-5.2130844E-2,2.6608752E-3],"split_indices":[0,3,3,5,14,8,0,0,0,0,0,0,0,0,0],"split_type":[0,0,0,0,0,0,0,0,0,0,0,0,0,0,0],"sum_hessian":[4.592295E3,2.7919985E3,1.8002963E3,1.01415045E3,1.7778481E3,1.2057501E3,5.945462E2,3.8754437E2,6.266061E2,3.5822302E2,1.4196251E3,8.526542E2,3.5309595E2,1.8224316E2,4.1230304E2],"tree_param":{"num_deleted":"0","num_feature":"32","num_nodes":"15","size_leaf_vector":"1"}},{"base_weights":[2.511031E-3,3.5762057E-1,-8.3453625E-2,-7.4511945E-2,5.560127E-1,-5.429341E-1,2.1042418E-2,4.0941175E-2,-4.7191437E-2,3.4402605E-2,8.942104E-2,-1.0886139E-1,-4.295093E-2,1.4595169E-2,-2.88142E-2],"categories":[],"categories_nodes":[],"categories_segments":[],"categories_sizes":[],"default_left":[0,0,0,0,0,0,0,0,0,0,0,0,0,0,0],"id":13,"left_children":[1,3,5,7,9,11,13,-1,-1,-1,-1,-1,-1,-1,-1],"loss_changes":[1.3943547E2,7.636172E1,1.7657922E2,5.4230488E1,4.3442245E1,4.170723E1,1.1578709E2,0E0,0E0,0E0,0E0,0E0,0E0,0E0,0E0],"parents":[2147483647,0,0,1,1,2,2,3,3,4,4,5,5,6,6],"right_children":[2,4,6,8,10,12,14,-1,-1,-1,-1,-1,-1,-1,-1],"split_conditions":[9.989229E-1,-4.2828945E-3,-7.3792343E-3,9.9737644E-1,-3.9429488E-3,-5.720252E-3,1.001034E0,4.0941175E-2,-4.7191437E-2,3.4402605E-2,8.942104E-2,-1.0886139E-1,-4.295093E-2,1.4595169E-2,-2.88142E-2],"split_indices":[3,4,8,3,14,14,3,0,0,0,0,0,0,0,0],"split_type":[0,0,0,0,0,0,0,0,0,0,0,0,0,0,0],"sum_hessian":[4.565654E3,8.892227E2,3.676431E3,2.799869E2,6.092358E2,6.804078E2,2.9960232E3,1.26236435E2,1.5375049E2,3.7573654E2,2.3349924E2,1.1561136E2,5.6479645E2,2.1343018E3,8.6172144E2],"tree_param":{"num_deleted":"0","num_feature":"32","num_nodes":"15","size_leaf_vector":"1"}},{"base_weights":[4.132097E-3,-1.741623E-1,1.5889235E-1,-4.1155435E-2,-5.149314E-1,3.8537475E-1,-4.3930613E-2,-1.630077E-2,2.8260762E-2,-1.881794E-2,-7.533755E-2,2.0368319E-2,6.636196E-2,-3.1090815E-2,1.3842657E-2],"categories":[],"categories_nodes":[],"categories_segments":[],"categories_sizes":[],"default_left":[0,0,0,0,0,0,0,0,0,0,0,0,0,0,0],"id":14,"left_children":[1,3,5,7,9,11,13,-1,-1,-1,-1,-1,-1,-1,-1],"loss_changes":[1.25748665E2,9.5960106E1,1.1208388E2,6.0178703E1,4.617038E1,5.813913E1,6.274693E1,0E0,0E0,0E0,0E0,0E0,0E0,0E0,0E0],"parents":[2147483647,0,0,1,1,2,2,3,3,4,4,5,5,6,6],"right_children":[2,4,6,8,10,12,14,-1,-1,-1,-1,-1,-1,-1,-1],"split_conditions":[-1.11851834E-4,1.0002278E0,1.0002803E0,-7.3809846E-4,-1.9715005E-4,1E0,6.749083E-3,-1.630077E-2,2.8260762E-2,-1.881794E-2,-7.533755E-2,2.0368319E-2,6.636196E-2,-3.1090815E-2,1.3842657E-2],"split_indices":[0,3,3,8,22,15,8,0,0,0,0,0,0,0,0],"split_type":[0,0,0,0,0,0,0,0,0,0,0,0,0,0,0],"sum_hessian":[4.5552827E3,2.1166414E3,2.438641E3,1.5232261E3,5.9341534E2,1.1516974E3,1.2869437E3,1.107065E3,4.1616113E2,2.5110403E2,3.4231134E2,6.977829E2,4.539145E2,5.220048E2,7.649389E2],"tree_param":{"num_deleted":"0","num_feature":"32","num_nodes":"15","size_leaf_vector":"1"}},{"base_weights":[2.5029734E-3,-2.5342295E-1,1.1873465E-1,-7.3617674E-2,-4.151346E-1,3.7006295E-1,2.2993828E-3,-3.5326403E-2,1.6861768E-2,-3.067073E-2,-5.9061207E-2,1.951917E-2,4.5954674E-2,-1.7146548E-2,2.0740371E-2],"categories":[],"categories_nodes":[],"categories_segments":[],"categories_sizes":[],"default_left":[0,0,0,0,0,0,0,0,0,0,0,0,0,0,0],"id":15,"left_children":[1,3,5,7,9,11,13,-1,-1,-1,-1,-1,-1,-1,-1],"loss_changes":[1.3428694E2,4.0965057E1,9.084525E1,4.536595E1,1.3938309E1,1.5290283E1,7.568327E1,0E0,0E0,0E0,0E0,0E0,0E0,0E0,0E0],"parents":[2147483647,0,0,1,1,2,2,3,3,4,4,5,5,6,6],"right_children":[2,4,6,8,10,12,14,-1,-1,-1,-1,-1,-1,-1,-1],"split_conditions":[-6.6507206E-4,-6.060842E-4,-1.1056076E-4,-2.0802903E-3,4.7693253E0,4.01E1,9.251423E-4,-3.5326403E-2,1.6861768E-2,-3.067073E-2,-5.9061207E-2,1.951917E-2,4.5954674E-2,-1.7146548E-2,2.0740371E-2],"split_indices":[1,22,22,1,20,28,1,0,0,0,0,0,0,0,0],"split_type":[0,0,0,0,0,0,0,0,0,0,0,0,0,0,0],"sum_hessian":[4.5123364E3,1.4089172E3,3.1034194E3,6.6782544E2,7.4109186E2,9.818641E2,2.1215552E3,3.097635E2,3.5806192E2,4.597566E2,2.8133524E2,3.334365E2,6.484276E2,1.1486122E3,9.72943E2],"tree_param":{"num_deleted":"0","num_feature":"32","num_nodes":"15","size_leaf_vector":"1"}},{"base_weights":[-4.694201E-3,3.7883866E-1,-6.858007E-2,2.6962183E-2,6.1108166E-1,-4.305056E-1,3.0881414E-2,4.0816337E-2,-2.8437147E-2,8.896714E-2,3.6812697E-2,-8.603481E-2,-3.4075946E-2,9.437907E-3,-3.2780565E-2],"categories":[],"categories_nodes":[],"categories_segments":[],"categories_sizes":[],"default_left":[0,0,0,0,0,0,0,0,0,0,0,0,0,0,0],"id":16,"left_children":[1,3,5,7,9,11,13,-1,-1,-1,-1,-1,-1,-1,-1],"loss_changes":[1.1023289E2,5.2479813E1,1.3883565E2,3.0552391E1,2.586171E1,3.1779465E1,6.89511E1,0E0,0E0,0E0,0E0,0E0,0E0,0E0,0E0],"parents":[2147483647,0,0,1,1,2,2,3,3,4,4,5,5,6,6],"right_children":[2,4,6,8,10,12,14,-1,-1,-1,-1,-1,-1,-1,-1],"split_conditions":[9.985929E-1,-2.0036749E-3,-8.571824E-4,9.9715525E-1,-4.8633388E-4,-3.5248406E-3,1.0015899E0,4.0816337E-2,-2.8437147E-2,8.896714E-2,3.6812697E-2,-8.603481E-2,-3.4075946E-2,9.437907E-3,-3.2780565E-2],"split_indices":[3,0,0,3,22,4,3,0,0,0,0,0,0,0,0],"split_type":[0,0,0,0,0,0,0,0,0,0,0,0,0,0,0],"sum_hessian":[4.4968135E3,6.413855E2,3.855428E3,2.5545543E2,3.8593005E2,8.303995E2,3.0250283E3,1.1470187E2,1.4075357E2,1.7854051E2,2.0738954E2,1.4194797E2,6.8845154E2,2.5706826E3,4.5434586E2],"tree_param":{"num_deleted":"0","num_feature":"32","num_nodes":"15","size_leaf_vector":"1"}},{"base_weights":[1.0862792E-2,1.0716331E-1,-2.2740643E-1,-5.839003E-2,3.7859637E-1,-6.653162E-1,-8.022377E-2,2.7484074E-2,-2.0842811E-2,2.792955E-2,9.127947E-2,-8.112525E-2,-1.7813174E-2,6.003266E-3,-4.290211E-2],"categories":[],"categories_nodes":[],"categories_segments":[],"categories_sizes":[],"default_left":[0,0,0,0,0,0,0,0,0,0,0,0,0,0,0],"id":17,"left_children":[1,3,5,7,9,11,13,-1,-1,-1,-1,-1,-1,-1,-1],"loss_changes":[1.0303475E2,1.4372276E2,8.325245E1,9.9412094E1,6.401851E1,2.296228E1,4.7406334E1,0E0,0E0,0E0,0E0,0E0,0E0,0E0,0E0],"parents":[2147483647,0,0,1,1,2,2,3,3,4,4,5,5,6,6],"right_children":[2,4,6,8,10,12,14,-1,-1,-1,-1,-1,-1,-1,-1],"split_conditions":[1.0006602E0,1E0,2.087338E-3,9.987065E-1,3.1388416E-3,2.7720814E-3,1.0022871E0,2.7484074E-2,-2.0842811E-2,2.792955E-2,9.127947E-2,-8.112525E-2,-1.7813174E-2,6.003266E-3,-4.290211E-2],"split_indices":[3,15,14,3,14,4,3,0,0,0,0,0,0,0,0],"split_type":[0,0,0,0,0,0,0,0,0,0,0,0,0,0,0],"sum_hessian":[4.4883604E3,3.1968499E3,1.2915105E3,1.9862032E3,1.2106466E3,3.2399976E2,9.675107E2,6.163884E2,1.3698148E3,1.0221621E3,1.884845E2,2.4880495E2,7.519479E1,6.906274E2,2.7688333E2],"tree_param":{"num_deleted":"0","num_feature":"32","num_nodes":"15","size_leaf_vector":"1"}},{"base_weights":[2.0762803E-3,-1.0266607E-1,2.6128146E-1,3.137615E-2,-3.3364356E-1,3.6280224E-1,-2.8088844E-1,-8.085042E-3,3.07269E-2,-4.4701558E-2,4.032563E-3,2.8369864E-2,8.477582E-2,-5.5425804E-2,1.4602928E-2],"categories":[],"categories_nodes":[],"categories_segments":[],"categories_sizes":[],"default_left":[0,0,0,0,0,0,0,0,0,0,0,0,0,0,0],"id":18,"left_children":[1,3,5,7,9,11,13,-1,-1,-1,-1,-1,-1,-1,-1],"loss_changes":[1.224638E2,9.947307E1,7.155398E1,6.2994778E1,5.003842E1,4.1721313E1,2.4041145E1,0E0,0E0,0E0,0E0,0E0,0E0,0E0,0E0],"parents":[2147483647,0,0,1,1,2,2,3,3,4,4,5,5,6,6],"right_children":[2,4,6,8,10,12,14,-1,-1,-1,-1,-1,-1,-1,-1],"split_conditions":[8.145602E-4,1.0001615E0,1.0022871E0,1E0,2.7375557E-3,2.8856283E-3,6.6416954E1,-8.085042E-3,3.07269E-2,-4.4701558E-2,4.032563E-3,2.8369864E-2,8.477582E-2,-5.5425804E-2,1.4602928E-2],"split_indices":[0,3,3,15,5,0,6,0,0,0,0,0,0,0,0],"split_type":[0,0,0,0,0,0,0,0,0,0,0,0,0,0,0],"sum_hessian":[4.508689E3,3.21154E3,1.2971488E3,2.0327479E3,1.1787921E3,1.0928455E3,2.043034E2,1.4454717E3,5.872762E2,9.0441534E2,2.743767E2,9.4094775E2,1.518977E2,1.243681E2,7.993531E1],"tree_param":{"num_deleted":"0","num_feature":"32","num_nodes":"15","size_leaf_vector":"1"}},{"base_weights":[4.206783E-3,-7.7595174E-2,2.2625555E-1,1.3702622E-2,-3.8820824E-1,3.5007924E-1,-2.268187E-1,-9.905267E-3,3.0797964E-2,-5.0017934E-2,7.239464E-3,1.8423129E-2,6.1033852E-2,-5.0833756E-3,-6.4895086E-2],"categories":[],"categories_nodes":[],"categories_segments":[],"categories_sizes":[],"default_left":[0,0,0,0,0,0,0,0,0,0,0,0,0,0,0],"id":19,"left_children":[1,3,5,7,9,11,13,-1,-1,-1,-1,-1,-1,-1,-1],"loss_changes":[8.1048065E1,9.247594E1,6.747093E1,8.368193E1,3.824005E1,4.0625572E1,1.9166159E1,0E0,0E0,0E0,0E0,0E0,0E0,0E0,0E0],"parents":[2147483647,0,0,1,1,2,2,3,3,4,4,5,5,6,6],"right_children":[2,4,6,8,10,12,14,-1,-1,-1,-1,-1,-1,-1,-1],"split_conditions":[8.85196E-4,1.0005531E0,1.0020027E0,1.7866418E-4,4.029461E-3,1.9058331E-3,1.37572975E1,-9.905267E-3,3.0797964E-2,-5.0017934E-2,7.239464E-3,1.8423129E-2,6.1033852E-2,-5.0833756E-3,-6.4895086E-2],"split_indices":[0,3,3,14,4,4,20,0,0,0,0,0,0,0,0],"split_type":[0,0,0,0,0,0,0,0,0,0,0,0,0,0,0],"sum_hessian":[4.460044E3,3.2597969E3,1.2002468E3,2.5200425E3,7.397545E2,9.4280786E2,2.5743893E2,1.8224249E3,6.9761755E2,5.950209E2,1.4473361E2,5.768946E2,3.6591324E2,1.8248303E2,7.49559E1],"tree_param":{"num_deleted":"0","num_feature":"32","num_nodes":"15","size_leaf_vector":"1"}},{"base_weights":[-8.246081E-3,1.8927749E-1,-1.0611452E-1,-2.1465464E-1,3.0795673E-1,-4.3251607E-1,3.0992525E-2,2.4782067E-2,-5.5428613E-2,1.6589794E-2,5.5150695E-2,-6.321155E-2,-2.1872215E-2,1.6223654E-2,-2.4864053E-2],"categories":[],"categories_nodes":[],"categories_segments":[],"categories_sizes":[],"default_left":[0,0,0,0,0,0,0,0,0,0,0,0,0,0,0],"id":20,"left_children":[1,3,5,7,9,11,13,-1,-1,-1,-1,-1,-1,-1,-1],"loss_changes":[8.560099E1,7.03974E1,1.3252122E2,5.2560783E1,3.9155746E1,3.7240005E1,7.659757E1,0E0,0E0,0E0,0E0,0E0,0E0,0E0,0E0],"parents":[2147483647,0,0,1,1,2,2,3,3,4,4,5,5,6,6],"right_children":[2,4,6,8,10,12,14,-1,-1,-1,-1,-1,-1,-1,-1],"split_conditions":[9.995146E-1,-4.2828945E-3,-1.172924E-3,9.975407E-1,-2.3222351E-3,1E0,1.0012133E0,2.4782067E-2,-5.5428613E-2,1.6589794E-2,5.5150695E-2,-6.321155E-2,-2.1872215E-2,1.6223654E-2,-2.4864053E-2],"split_indices":[3,4,8,3,14,15,3,0,0,0,0,0,0,0,0],"split_type":[0,0,0,0,0,0,0,0,0,0,0,0,0,0,0],"sum_hessian":[4.426059E3,1.4661199E3,2.9599392E3,3.3275586E2,1.133364E3,8.7492035E2,2.0850188E3,1.4101137E2,1.9174449E2,7.1689325E2,4.1647073E2,4.5146915E2,4.234512E2,1.4192994E3,6.657194E2],"tree_param":{"num_deleted":"0","num_feature":"32","num_nodes":"15","size_leaf_vector":"1"}},{"base_weights":[5.9872674E-4,-6.038626E-2,3.1406775E-1,1.0135027E-3,-4.437716E-1,4.7919235E-1,-1.6115905E-1,-8.881526E-3,3.147401E-2,-6.4546466E-2,-4.4841398E-4,3.0491635E-2,7.3345184E-2,2.8224487E-5,-6.7830876E-2],"categories":[],"categories_nodes":[],"categories_segments":[],"categories_sizes":[],"default_left":[0,0,0,0,0,0,0,0,0,0,0,0,0,0,0],"id":21,"left_children":[1,3,5,7,9,11,13,-1,-1,-1,-1,-1,-1,-1,-1],"loss_changes":[8.464049E1,8.724933E1,5.6661736E1,9.009073E1,4.5330254E1,2.3500275E1,1.5586864E1,0E0,0E0,0E0,0E0,0E0,0E0,0E0,0E0],"parents":[2147483647,0,0,1,1,2,2,3,3,4,4,5,5,6,6],"right_children":[2,4,6,8,10,12,14,-1,-1,-1,-1,-1,-1,-1,-1],"split_conditions":[1.5054013E-3,1.0010558E0,1.0022871E0,5.416796E-3,2.1004366E-2,2.456333E-3,1.0050755E0,-8.881526E-3,3.147401E-2,-6.4546466E-2,-4.4841398E-4,3.0491635E-2,7.3345184E-2,2.8224487E-5,-6.7830876E-2],"split_indices":[1,3,3,8,8,4,3,0,0,0,0,0,0,0,0],"split_type":[0,0,0,0,0,0,0,0,0,0,0,0,0,0,0],"sum_hessian":[4.425529E3,3.7054463E3,7.2008234E2,3.1947925E3,5.1065372E2,5.3439166E2,1.8569064E2,2.4842102E3,7.1058246E2,3.4964804E2,1.6100566E2,3.1837115E2,2.1602052E2,1.4227528E2,4.341536E1],"tree_param":{"num_deleted":"0","num_feature":"32","num_nodes":"15","size_leaf_vector":"1"}},{"base_weights":[4.395991E-3,-7.200627E-2,2.1337293E-1,-1.3374813E-2,-4.1405174E-1,-1.1012953E-1,2.9031822E-1,-2.7324483E-2,5.7536345E-3,1.3507845E-2,-4.456496E-2,1.7416172E-2,-3.19183E-2,4.0660072E-2,8.069308E-3],"categories":[],"categories_nodes":[],"categories_segments":[],"categories_sizes":[],"default_left":[0,0,0,0,0,0,0,0,0,0,0,0,0,0,0],"id":22,"left_children":[1,3,5,7,9,11,13,-1,-1,-1,-1,-1,-1,-1,-1],"loss_changes":[7.0412575E1,6.475971E1,2.9421146E1,5.0837574E1,8.259293E0,1.3581617E1,2.322358E1,0E0,0E0,0E0,0E0,0E0,0E0,0E0,0E0],"parents":[2147483647,0,0,1,1,2,2,3,3,4,4,5,5,6,6],"right_children":[2,4,6,8,10,12,14,-1,-1,-1,-1,-1,-1,-1,-1],"split_conditions":[8.85196E-4,5.3000485E-4,-4.6493066E-3,-1.6593625E-3,9.783593E-1,9.958228E-1,1.0035107E0,-2.7324483E-2,5.7536345E-3,1.3507845E-2,-4.456496E-2,1.7416172E-2,-3.19183E-2,4.0660072E-2,8.069308E-3],"split_indices":[1,22,9,1,12,20,7,0,0,0,0,0,0,0,0],"split_type":[0,0,0,0,0,0,0,0,0,0,0,0,0,0,0],"sum_hessian":[4.40811E3,3.2284421E3,1.1796676E3,2.756908E3,4.7153412E2,2.2658809E2,9.5307947E2,5.904E2,2.166508E3,2.5478333E1,4.460558E2,9.608679E1,1.305013E2,6.124203E2,3.4065915E2],"tree_param":{"num_deleted":"0","num_feature":"32","num_nodes":"15","size_leaf_vector":"1"}},{"base_weights":[-3.1889228E-3,2.1155334E-1,-9.7056046E-2,-1.9834299E-2,4.1637588E-1,-3.456476E-1,3.751614E-2,3.0709743E-2,-3.0153716E-2,2.7168144E-2,6.5582655E-2,-2.263554E-2,-7.074633E-2,1.9454021E-2,-1.4016225E-2],"categories":[],"categories_nodes":[],"categories_segments":[],"categories_sizes":[],"default_left":[0,0,0,0,0,0,0,0,0,0,0,0,0,0,0],"id":23,"left_children":[1,3,5,7,9,11,13,-1,-1,-1,-1,-1,-1,-1,-1],"loss_changes":[8.873249E1,6.3464672E1,1.0248335E2,5.8081753E1,2.443103E1,4.6277145E1,5.549707E1,0E0,0E0,0E0,0E0,0E0,0E0,0E0,0E0],"parents":[2147483647,0,0,1,1,2,2,3,3,4,4,5,5,6,6],"right_children":[2,4,6,8,10,12,14,-1,-1,-1,-1,-1,-1,-1,-1],"split_conditions":[9.9942285E-1,-2.4026316E-3,1E0,9.981832E-1,-8.4170904E-5,9.9951625E-1,1.0007945E0,3.0709743E-2,-3.0153716E-2,2.7168144E-2,6.5582655E-2,-2.263554E-2,-7.074633E-2,1.9454021E-2,-1.4016225E-2],"split_indices":[3,4,15,3,1,7,3,0,0,0,0,0,0,0,0],"split_type":[0,0,0,0,0,0,0,0,0,0,0,0,0,0,0],"sum_hessian":[4.399998E3,1.3379291E3,3.0620688E3,6.2864886E2,7.092802E2,1.0748883E3,1.9871805E3,2.9092462E2,3.3772424E2,4.4344897E2,2.6583124E2,8.0958887E2,2.6529938E2,1.0548538E3,9.323267E2],"tree_param":{"num_deleted":"0","num_feature":"32","num_nodes":"15","size_leaf_vector":"1"}},{"base_weights":[-6.6604456E-3,3.7107882E-1,-4.859397E-2,-1.5210888E-1,5.313589E-1,-4.2371792E-1,2.7398858E-2,-1.10364296E-1,-2.5835203E-3,9.339078E-2,4.1786965E-2,-7.182481E-2,-3.0326838E-2,2.3643073E-2,-6.1515537E-3],"categories":[],"categories_nodes":[],"categories_segments":[],"categories_sizes":[],"default_left":[0,0,0,0,0,0,0,0,0,0,0,0,0,0,0],"id":24,"left_children":[1,3,5,7,9,11,13,-1,-1,-1,-1,-1,-1,-1,-1],"loss_changes":[6.9621185E1,3.690878E1,1.1278359E2,1.243973E1,1.4978577E1,2.3425697E1,6.1171833E1,0E0,0E0,0E0,0E0,0E0,0E0,0E0,0E0],"parents":[2147483647,0,0,1,1,2,2,3,3,4,4,5,5,6,6],"right_children":[2,4,6,8,10,12,14,-1,-1,-1,-1,-1,-1,-1,-1],"split_conditions":[9.981832E-1,-6.6770613E-3,-2.3739845E-3,-6.674035E-2,9.966034E-1,-5.720252E-3,9.998058E-1,-1.10364296E-1,-2.5835203E-3,9.339078E-2,4.1786965E-2,-7.182481E-2,-3.0326838E-2,2.3643073E-2,-6.1515537E-3],"split_indices":[3,4,4,8,3,14,3,0,0,0,0,0,0,0,0],"split_type":[0,0,0,0,0,0,0,0,0,0,0,0,0,0,0],"sum_hessian":[4.393156E3,4.3817792E2,3.9549778E3,1.0276911E2,3.354088E2,6.6546454E2,3.2895132E3,1.1133399E1,9.163571E1,7.2174675E1,2.6323413E2,1.9171318E2,4.7375134E2,9.811755E2,2.308338E3],"tree_param":{"num_deleted":"0","num_feature":"32","num_nodes":"15","size_leaf_vector":"1"}},{"base_weights":[-1.0403303E-2,-7.143728E-2,2.4353983E-1,1.7153566E-1,-1.5397657E-1,5.16194E-1,-9.944688E-2,-1.4244941E-2,3.514393E-2,-5.4250747E-2,-7.5351284E-3,3.340892E-2,8.0480754E-2,-4.145513E-2,1.2101965E-2],"categories":[],"categories_nodes":[],"categories_segments":[],"categories_sizes":[],"default_left":[0,0,0,0,0,0,0,0,0,0,0,0,0,0,0],"id":25,"left_children":[1,3,5,7,9,11,13,-1,-1,-1,-1,-1,-1,-1,-1],"loss_changes":[6.7769104E1,7.0720566E1,7.9285126E1,5.0567005E1,8.035434E1,2.45486E1,2.6176128E1,0E0,0E0,0E0,0E0,0E0,0E0,0E0,0E0],"parents":[2147483647,0,0,1,1,2,2,3,3,4,4,5,5,6,6],"right_children":[2,4,6,8,10,12,14,-1,-1,-1,-1,-1,-1,-1,-1],"split_conditions":[1.2294478E-2,9.9903053E-1,1.0015899E0,-1.9318521E-2,-9.7871665E-3,2.0399652E-2,6.121322E-3,-1.4244941E-2,3.514393E-2,-5.4250747E-2,-7.5351284E-3,3.340892E-2,8.0480754E-2,-4.145513E-2,1.2101965E-2],"split_indices":[8,3,3,8,8,8,10,0,0,0,0,0,0,0,0],"split_type":[0,0,0,0,0,0,0,0,0,0,0,0,0,0,0],"sum_hessian":[4.370315E3,3.5240466E3,8.4626843E2,8.9331E2,2.6307366E3,4.7119293E2,3.7507553E2,3.2547247E2,5.678375E2,4.4177634E2,2.1889602E3,2.9022745E2,1.8096548E2,1.5403656E2,2.2103896E2],"tree_param":{"num_deleted":"0","num_feature":"32","num_nodes":"15","size_leaf_vector":"1"}},{"base_weights":[-1.9524763E-3,-2.2985509E-1,6.056823E-2,2.0872037E-1,-3.8326308E-1,4.0728903E-1,4.5332104E-5,-1.4816645E-3,5.5665392E-2,-5.315697E-2,-1.1584285E-2,7.321795E-2,3.2724228E-2,-1.1945479E-2,1.2618402E-2],"categories":[],"categories_nodes":[],"categories_segments":[],"categories_sizes":[],"default_left":[0,0,0,0,0,0,0,0,0,0,0,0,0,0,0],"id":26,"left_children":[1,3,5,7,9,11,13,-1,-1,-1,-1,-1,-1,-1,-1],"loss_changes":[6.213976E1,6.324554E1,7.181528E1,1.898082E1,2.7537697E1,1.2987457E1,4.3949863E1,0E0,0E0,0E0,0E0,0E0,0E0,0E0,0E0],"parents":[2147483647,0,0,1,1,2,2,3,3,4,4,5,5,6,6],"right_children":[2,4,6,8,10,12,14,-1,-1,-1,-1,-1,-1,-1,-1],"split_conditions":[-1.1097576E-3,9.980796E-1,-5.664881E-4,-2.608584E-3,1.936847E-3,9.9849397E-1,5.308463E-4,-1.4816645E-3,5.5665392E-2,-5.315697E-2,-1.1584285E-2,7.321795E-2,3.2724228E-2,-1.1945479E-2,1.2618402E-2],"split_indices":[0,3,22,1,9,3,0,0,0,0,0,0,0,0,0],"split_type":[0,0,0,0,0,0,0,0,0,0,0,0,0,0,0],"sum_hessian":[4.3591265E3,9.3783215E2,3.4212942E3,2.4293858E2,6.9489355E2,5.076073E2,2.913687E3,1.484934E2,9.44452E1,4.4636148E2,2.4853204E2,9.873185E1,4.0887546E2,1.4962429E3,1.417444E3],"tree_param":{"num_deleted":"0","num_feature":"32","num_nodes":"15","size_leaf_vector":"1"}},{"base_weights":[5.5915285E-3,-1.7689754E-1,7.392121E-2,3.9541754E-1,-2.5762463E-1,2.934171E-1,-2.0189274E-2,-9.4116725E-2,5.0558973E-2,-6.834189E-2,-1.8793851E-2,1.1722772E-2,5.248114E-2,-4.4174608E-2,4.5136167E-3],"categories":[],"categories_nodes":[],"categories_segments":[],"categories_sizes":[],"default_left":[0,0,0,0,0,0,0,0,0,0,0,0,0,0,0],"id":27,"left_children":[1,3,5,7,9,11,13,-1,-1,-1,-1,-1,-1,-1,-1],"loss_changes":[5.4466736E1,5.508028E1,6.565346E1,2.2195229E1,3.0833618E1,3.882229E1,6.1299633E1,0E0,0E0,0E0,0E0,0E0,0E0,0E0,0E0],"parents":[2147483647,0,0,1,1,2,2,3,3,4,4,5,5,6,6],"right_children":[2,4,6,8,10,12,14,-1,-1,-1,-1,-1,-1,-1,-1],"split_conditions":[-8.191834E-4,9.972779E-1,9.9972385E-1,-6.674035E-2,-3.1476677E-3,-1.7717638E-3,-1.2205946E-3,-9.4116725E-2,5.0558973E-2,-6.834189E-2,-1.8793851E-2,1.1722772E-2,5.248114E-2,-4.4174608E-2,4.5136167E-3],"split_indices":[1,3,3,8,1,14,14,0,0,0,0,0,0,0,0],"split_type":[0,0,0,0,0,0,0,0,0,0,0,0,0,0,0],"sum_hessian":[4.3659756E3,1.1889747E3,3.177001E3,1.4649556E2,1.0424792E3,9.527543E2,2.2242468E3,1.058142E1,1.3591414E2,1.4537933E2,8.9709985E2,5.4175507E2,4.109992E2,2.9765613E2,1.9265906E3],"tree_param":{"num_deleted":"0","num_feature":"32","num_nodes":"15","size_leaf_vector":"1"}},{"base_weights":[-9.603075E-4,-1.8781543E-1,6.782898E-2,1.2678133E-1,-3.219854E-1,2.7935535E-1,-1.2857027E-2,2.4359483E-2,-3.719124E-2,-4.7714036E-2,-1.1494975E-2,3.9685313E-2,-7.70786E-3,-2.180353E-2,1.228996E-2],"categories":[],"categories_nodes":[],"categories_segments":[],"categories_sizes":[],"default_left":[0,0,0,0,0,0,0,0,0,0,0,0,0,0,0],"id":28,"left_children":[1,3,5,7,9,11,13,-1,-1,-1,-1,-1,-1,-1,-1],"loss_changes":[5.547456E1,4.9059498E1,5.384307E1,2.0358559E1,2.610572E1,3.6511734E1,6.3659172E1,0E0,0E0,0E0,0E0,0E0,0E0,0E0,0E0],"parents":[2147483647,0,0,1,1,2,2,3,3,4,4,5,5,6,6],"right_children":[2,4,6,8,10,12,14,-1,-1,-1,-1,-1,-1,-1,-1],"split_conditions":[-8.571824E-4,9.984561E-1,9.9965364E-1,5.799339E0,1E0,3.6564856E-4,2.6545995E-3,2.4359483E-2,-3.719124E-2,-4.7714036E-2,-1.1494975E-2,3.9685313E-2,-7.70786E-3,-2.180353E-2,1.228996E-2],"split_indices":[0,3,3,20,15,22,8,0,0,0,0,0,0,0,0],"split_type":[0,0,0,0,0,0,0,0,0,0,0,0,0,0,0],"sum_hessian":[4.3138755E3,1.1603203E3,3.153555E3,3.4692303E2,8.133973E2,8.700834E2,2.2834717E3,2.81497E2,6.5426025E1,4.6420898E2,3.4918832E2,6.542858E2,2.1579752E2,9.090127E2,1.374459E3],"tree_param":{"num_deleted":"0","num_feature":"32","num_nodes":"15","size_leaf_vector":"1"}},{"base_weights":[5.539827E-4,-9.07477E-2,1.5132846E-1,1.5185381E-1,-1.7004813E-1,3.540387E-1,5.205458E-2,-1.2846778E-2,3.0787716E-2,-6.5226935E-2,-1.2169148E-2,7.862092E-3,5.2315522E-2,-1.5976196E-2,2.4403857E-2],"categories":[],"categories_nodes":[],"categories_segments":[],"categories_sizes":[],"default_left":[0,0,0,0,0,0,0,0,0,0,0,0,0,0,0],"id":29,"left_children":[1,3,5,7,9,11,13,-1,-1,-1,-1,-1,-1,-1,-1],"loss_changes":[5.9546696E1,5.1857655E1,3.2812874E1,2.909122E1,4.7279453E1,2.493164E1,4.4620895E1,0E0,0E0,0E0,0E0,0E0,0E0,0E0,0E0],"parents":[2147483647,0,0,1,1,2,2,3,3,4,4,5,5,6,6],"right_children":[2,4,6,8,10,12,14,-1,-1,-1,-1,-1,-1,-1,-1],"split_conditions":[9.7717075E-3,9.988779E-1,1.0000585E0,-4.2828945E-3,-1.5880082E-2,-4.8022363E-3,1.1102108E-2,-1.2846778E-2,3.0787716E-2,-6.5226935E-2,-1.2169148E-2,7.862092E-3,5.2315522E-2,-1.5976196E-2,2.4403857E-2],"split_indices":[13,3,3,4,8,8,8,0,0,0,0,0,0,0,0],"split_type":[0,0,0,0,0,0,0,0,0,0,0,0,0,0,0],"sum_hessian":[4.3236494E3,2.6931855E3,1.6304639E3,6.632399E2,2.0299456E3,5.35153E2,1.0953109E3,2.3721706E2,4.260229E2,1.838702E2,1.8460754E3,2.0414838E2,3.310046E2,5.208373E2,5.7447363E2],"tree_param":{"num_deleted":"0","num_feature":"32","num_nodes":"15","size_leaf_vector":"1"}},{"base_weights":[4.8781987E-3,-1.7023403E-2,4.3252164E-1,2.5672408E-2,-4.2163342E-1,6.125781E-1,-2.7417126E-1,-5.342786E-3,2.2285633E-2,-6.4432554E-2,-2.3774737E-2,9.22057E-2,4.2849313E-2,-6.735746E-2,2.2754265E-2],"categories":[],"categories_nodes":[],"categories_segments":[],"categories_sizes":[],"default_left":[0,0,0,0,0,0,0,0,0,0,0,0,0,0,0],"id":30,"left_children":[1,3,5,7,9,11,13,-1,-1,-1,-1,-1,-1,-1,-1],"loss_changes":[4.030447E1,7.073189E1,2.6844933E1,5.7784115E1,1.5850685E1,9.141205E0,8.8221655E0,0E0,0E0,0E0,0E0,0E0,0E0,0E0,0E0],"parents":[2147483647,0,0,1,1,2,2,3,3,4,4,5,5,6,6],"right_children":[2,4,6,8,10,12,14,-1,-1,-1,-1,-1,-1,-1,-1],"split_conditions":[3.175983E-2,1.0015899E0,1.0050755E0,6.032456E-4,1.2075196E-3,-8.885993E-4,6.714166E1,-5.342786E-3,2.2285633E-2,-6.4432554E-2,-2.3774737E-2,9.22057E-2,4.2849313E-2,-6.735746E-2,2.2754265E-2],"split_indices":[8,3,3,0,0,24,11,0,0,0,0,0,0,0,0],"split_type":[0,0,0,0,0,0,0,0,0,0,0,0,0,0,0],"sum_hessian":[4.3014536E3,4.0928025E3,2.086512E2,3.7029875E3,3.8981512E2,1.6639024E2,4.2260956E1,2.643341E3,1.0596464E3,1.7517206E2,2.1464307E2,6.0563515E1,1.0582672E2,2.3338861E1,1.8922096E1],"tree_param":{"num_deleted":"0","num_feature":"32","num_nodes":"15","size_leaf_vector":"1"}},{"base_weights":[3.4395938E-3,-5.437273E-2,2.1503441E-1,5.80501E-2,-1.9685528E-1,4.7279736E-1,2.8076269E-2,-5.120701E-3,2.9576946E-2,-4.176338E-2,-6.128737E-3,-3.6960994E-3,5.859023E-2,-1.39375E-2,2.433679E-2],"categories":[],"categories_nodes":[],"categories_segments":[],"categories_sizes":[],"default_left":[0,0,0,0,0,0,0,0,0,0,0,0,0,0,0],"id":31,"left_children":[1,3,5,7,9,11,13,-1,-1,-1,-1,-1,-1,-1,-1],"loss_changes":[5.2509975E1,5.4016495E1,4.4377327E1,4.8980988E1,4.4486103E1,2.2344917E1,1.9319754E1,0E0,0E0,0E0,0E0,0E0,0E0,0E0,0E0],"parents":[2147483647,0,0,1,1,2,2,3,3,4,4,5,5,6,6],"right_children":[2,4,6,8,10,12,14,-1,-1,-1,-1,-1,-1,-1,-1],"split_conditions":[6.3194717E1,9.999829E-1,1.0005896E0,-2.2065532E-3,2.6545995E-3,-2.5873967E-3,1.2318541E-3,-5.120701E-3,2.9576946E-2,-4.176338E-2,-6.128737E-3,-3.6960994E-3,5.859023E-2,-1.39375E-2,2.433679E-2],"split_indices":[2,3,3,8,8,4,1,0,0,0,0,0,0,0,0],"split_type":[0,0,0,0,0,0,0,0,0,0,0,0,0,0,0],"sum_hessian":[4.290604E3,3.370463E3,9.20141E2,1.8842936E3,1.4861693E3,3.8617914E2,5.3396185E2,1.2914984E3,5.927951E2,5.646045E2,9.215648E2,7.024799E1,3.1593115E2,3.0055017E2,2.334117E2],"tree_param":{"num_deleted":"0","num_feature":"32","num_nodes":"15","size_leaf_vector":"1"}},{"base_weights":[-1.0204436E-2,-3.0213723E-1,2.5506591E-2,1.9426093E-1,-4.8235124E-1,2.4344495E-1,-4.2185213E-2,-7.764203E-2,3.380814E-2,-7.903767E-4,-6.4703085E-2,-9.096469E-3,3.647926E-2,-4.721936E-2,6.353555E-4],"categories":[],"categories_nodes":[],"categories_segments":[],"categories_sizes":[],"default_left":[0,0,0,0,0,0,0,0,0,0,0,0,0,0,0],"id":32,"left_children":[1,3,5,7,9,11,13,-1,-1,-1,-1,-1,-1,-1,-1],"loss_changes":[4.4575397E1,4.1783184E1,5.6217304E1,1.7690231E1,2.6730522E1,3.6679832E1,6.069667E1,0E0,0E0,0E0,0E0,0E0,0E0,0E0,0E0],"parents":[2147483647,0,0,1,1,2,2,3,3,4,4,5,5,6,6],"right_children":[2,4,6,8,10,12,14,-1,-1,-1,-1,-1,-1,-1,-1],"split_conditions":[-2.0371238E-3,9.972779E-1,9.99362E-1,-1.2064015E-2,1E0,-6.610749E-3,-2.8524348E-3,-7.764203E-2,3.380814E-2,-7.903767E-4,-6.4703085E-2,-9.096469E-3,3.647926E-2,-4.721936E-2,6.353555E-4],"split_indices":[1,3,3,5,19,14,14,0,0,0,0,0,0,0,0],"split_type":[0,0,0,0,0,0,0,0,0,0,0,0,0,0,0],"sum_hessian":[4.273988E3,4.650235E2,3.8089644E3,1.23837135E2,3.4118637E2,9.020753E2,2.9068892E3,1.5412907E1,1.0842423E2,8.818123E1,2.5300514E2,2.4024873E2,6.6182654E2,2.9395883E2,2.6129302E3],"tree_param":{"num_deleted":"0","num_feature":"32","num_nodes":"15","size_leaf_vector":"1"}},{"base_weights":[-6.50665E-3,-1.1473052E-1,9.888028E-2,1.5452978E-1,-2.2224636E-1,2.4778128E-1,-9.876803E-2,-1.0227616E-2,3.602036E-2,-5.629734E-2,-1.6064258E-2,1.8749725E-2,6.342747E-2,-2.400882E-2,1.7204199E-2],"categories":[],"categories_nodes":[],"categories_segments":[],"categories_sizes":[],"default_left":[0,0,0,0,0,0,0,0,0,0,0,0,0,0,0],"id":33,"left_children":[1,3,5,7,9,11,13,-1,-1,-1,-1,-1,-1,-1,-1],"loss_changes":[4.8558945E1,6.084253E1,6.3507362E1,3.1726498E1,3.1426117E1,2.8551834E1,3.5539173E1,0E0,0E0,0E0,0E0,0E0,0E0,0E0,0E0],"parents":[2147483647,0,0,1,1,2,2,3,3,4,4,5,5,6,6],"right_children":[2,4,6,8,10,12,14,-1,-1,-1,-1,-1,-1,-1,-1],"split_conditions":[1E0,9.987065E-1,1.0007788E0,-1.9318521E-2,-2.9635055E-3,1.2294478E-2,2.1004366E-2,-1.0227616E-2,3.602036E-2,-5.629734E-2,-1.6064258E-2,1.8749725E-2,6.342747E-2,-2.400882E-2,1.7204199E-2],"split_indices":[15,3,3,8,4,8,8,0,0,0,0,0,0,0,0],"split_type":[0,0,0,0,0,0,0,0,0,0,0,0,0,0,0],"sum_hessian":[4.2555522E3,2.0994734E3,2.1560786E3,5.989754E2,1.500498E3,1.2295369E3,9.265417E2,2.6659967E2,3.3237573E2,2.2850598E2,1.2719921E3,1.0649192E3,1.6461761E2,6.0890344E2,3.176382E2],"tree_param":{"num_deleted":"0","num_feature":"32","num_nodes":"15","size_leaf_vector":"1"}},{"base_weights":[-4.3020674E-4,-4.1141644E-2,2.671773E-1,-1.0999706E-1,7.506986E-2,5.6869364E-1,1.8300863E-1,-6.9401558E-3,-3.846745E-2,3.603113E-2,1.4550337E-3,3.248265E-2,9.47796E-2,2.3755629E-2,-2.9306972E-2],"categories":[],"categories_nodes":[],"categories_segments":[],"categories_sizes":[],"default_left":[0,0,0,0,0,0,0,0,0,0,0,0,0,0,0],"id":34,"left_children":[1,3,5,7,9,11,13,-1,-1,-1,-1,-1,-1,-1,-1],"loss_changes":[4.6195095E1,2.9456902E1,1.4104771E1,2.5746933E1,2.364219E1,1.0944275E1,1.1474499E1,0E0,0E0,0E0,0E0,0E0,0E0,0E0,0E0],"parents":[2147483647,0,0,1,1,2,2,3,3,4,4,5,5,6,6],"right_children":[2,4,6,8,10,12,14,-1,-1,-1,-1,-1,-1,-1,-1],"split_conditions":[6.852878E1,1.2732734E-3,1.0024462E0,7.7802676E-4,-5.1277236E-4,6.032456E-4,5.2582316E0,-6.9401558E-3,-3.846745E-2,3.603113E-2,1.4550337E-3,3.248265E-2,9.47796E-2,2.3755629E-2,-2.9306972E-2],"split_indices":[2,14,7,22,22,0,20,0,0,0,0,0,0,0,0],"split_type":[0,0,0,0,0,0,0,0,0,0,0,0,0,0,0],"sum_hessian":[4.23814E3,3.6792568E3,5.588833E2,2.3103977E3,1.368859E3,1.2070976E2,4.3817352E2,2.0139952E3,2.9640244E2,2.3872823E2,1.1301307E3,7.458678E1,4.6122986E1,3.9357938E2,4.4594147E1],"tree_param":{"num_deleted":"0","num_feature":"32","num_nodes":"15","size_leaf_vector":"1"}},{"base_weights":[-3.7088918E-3,3.0712262E-1,-3.1046297E-2,-3.7764743E-1,4.0015563E-1,-4.2751902E-1,1.2408593E-2,1.2601201E-1,-5.6091227E-2,6.839371E-2,1.941081E-2,-2.5965115E-2,-6.7894496E-2,6.518925E-3,-1.9534172E-2],"categories":[],"categories_nodes":[],"categories_segments":[],"categories_sizes":[],"default_left":[0,0,0,0,0,0,0,0,0,0,0,0,0,0,0],"id":35,"left_children":[1,3,5,7,9,11,13,-1,-1,-1,-1,-1,-1,-1,-1],"loss_changes":[3.6381474E1,2.2200932E1,6.780499E1,1.32869625E1,1.7713242E1,1.6231209E1,3.8912163E1,0E0,0E0,0E0,0E0,0E0,0E0,0E0,0E0],"parents":[2147483647,0,0,1,1,2,2,3,3,4,4,5,5,6,6],"right_children":[2,4,6,8,10,12,14,-1,-1,-1,-1,-1,-1,-1,-1],"split_conditions":[9.9791056E-1,-5.239656E-3,-5.720252E-3,-3.5174763E1,3.7862852E-1,9.9909174E-1,1.0012133E0,1.2601201E-1,-5.6091227E-2,6.839371E-2,1.941081E-2,-2.5965115E-2,-6.7894496E-2,6.518925E-3,-1.9534172E-2],"split_indices":[3,0,14,21,26,3,3,0,0,0,0,0,0,0,0],"split_type":[0,0,0,0,0,0,0,0,0,0,0,0,0,0,0],"sum_hessian":[4.2793975E3,3.45117E2,3.9342803E3,4.091353E1,3.0420346E2,3.877448E2,3.5465356E3,3.5261075E0,3.738742E1,1.2698818E2,1.7721529E2,2.3372675E2,1.5401807E2,2.8285945E3,7.179412E2],"tree_param":{"num_deleted":"0","num_feature":"32","num_nodes":"15","size_leaf_vector":"1"}},{"base_weights":[-1.535318E-3,-2.158633E-1,4.049128E-2,-5.4323163E-2,-3.9105693E-1,1.7884508E-1,-5.6660395E-2,2.2651234E-3,-5.729158E-2,-4.9161755E-2,6.8415254E-3,7.3112086E-3,3.9631866E-2,-1.3178182E-2,1.8031029E-2],"categories":[],"categories_nodes":[],"categories_segments":[],"categories_sizes":[],"default_left":[0,0,0,0,0,0,0,0,0,0,0,0,0,0,0],"id":36,"left_children":[1,3,5,7,9,11,13,-1,-1,-1,-1,-1,-1,-1,-1],"loss_changes":[3.8349747E1,1.9732094E1,4.785577E1,1.4555266E1,1.5497337E1,3.3741585E1,3.7263546E1,0E0,0E0,0E0,0E0,0E0,0E0,0E0,0E0],"parents":[2147483647,0,0,1,1,2,2,3,3,4,4,5,5,6,6],"right_children":[2,4,6,8,10,12,14,-1,-1,-1,-1,-1,-1,-1,-1],"split_conditions":[3.4639446E1,9.991088E-1,9.99961E-1,7.611824E-4,1.9588363E-3,9.417415E-5,1.5054013E-3,2.2651234E-3,-5.729158E-2,-4.9161755E-2,6.8415254E-3,7.3112086E-3,3.9631866E-2,-1.3178182E-2,1.8031029E-2],"split_indices":[2,3,3,22,4,1,1,0,0,0,0,0,0,0,0],"split_type":[0,0,0,0,0,0,0,0,0,0,0,0,0,0,0],"sum_hessian":[4.2555757E3,6.9697815E2,3.5585977E3,3.6330078E2,3.3367734E2,1.4676603E3,2.0909375E3,3.171785E2,4.612229E1,2.7370416E2,5.9973175E1,9.884326E2,4.792277E2,1.5879801E3,5.029573E2],"tree_param":{"num_deleted":"0","num_feature":"32","num_nodes":"15","size_leaf_vector":"1"}},{"base_weights":[1.4658493E-2,-1.931739E-2,2.781198E-1,5.1298626E-2,-2.4641632E-1,5.2869284E-1,-4.4499836E-3,-4.1207955E-3,2.555346E-2,-5.1547755E-2,-1.1592849E-2,3.2720245E-2,9.356143E-2,-1.2079281E-2,5.336694E-2],"categories":[],"categories_nodes":[],"categories_segments":[],"categories_sizes":[],"default_left":[0,0,0,0,0,0,0,0,0,0,0,0,0,0,0],"id":37,"left_children":[1,3,5,7,9,11,13,-1,-1,-1,-1,-1,-1,-1,-1],"loss_changes":[3.805904E1,6.041538E1,3.439001E1,5.4308388E1,3.1312504E1,2.0799759E1,1.4417184E1,0E0,0E0,0E0,0E0,0E0,0E0,0E0,0E0],"parents":[2147483647,0,0,1,1,2,2,3,3,4,4,5,5,6,6],"right_children":[2,4,6,8,10,12,14,-1,-1,-1,-1,-1,-1,-1,-1],"split_conditions":[4.1064364E-3,1.0006322E0,1.0018994E0,3.2065203E-4,2.4345636E-3,6.024437E-3,7.907366E1,-4.1207955E-3,2.555346E-2,-5.1547755E-2,-1.1592849E-2,3.2720245E-2,9.356143E-2,-1.2079281E-2,5.336694E-2],"split_indices":[4,3,3,14,14,14,2,0,0,0,0,0,0,0,0],"split_type":[0,0,0,0,0,0,0,0,0,0,0,0,0,0,0],"sum_hessian":[4.250175E3,3.7655032E3,4.846714E2,2.8729412E3,8.92562E2,2.564179E2,2.282535E2,1.9778793E3,8.9506195E2,2.9053625E2,6.0202576E2,1.7270549E2,8.371241E1,1.8831485E2,3.9938637E1],"tree_param":{"num_deleted":"0","num_feature":"32","num_nodes":"15","size_leaf_vector":"1"}},{"base_weights":[5.1197205E-3,5.3224796E-1,-1.0521141E-2,-4.9007648E-1,7.027233E-1,-4.5141026E-1,1.8990388E-2,2.3204986E-2,-9.2457175E-2,1.893475E-2,8.529345E-2,-5.7459928E-2,1.042045E-2,2.5534183E-2,-2.712026E-3],"categories":[],"categories_nodes":[],"categories_segments":[],"categories_sizes":[],"default_left":[0,0,0,0,0,0,0,0,0,0,0,0,0,0,0],"id":38,"left_children":[1,3,5,7,9,11,13,-1,-1,-1,-1,-1,-1,-1,-1],"loss_changes":[3.4915977E1,2.1613163E1,5.3527004E1,5.8718777E0,7.9360466E0,1.7725128E1,4.2032276E1,0E0,0E0,0E0,0E0,0E0,0E0,0E0,0E0],"parents":[2147483647,0,0,1,1,2,2,3,3,4,4,5,5,6,6],"right_children":[2,4,6,8,10,12,14,-1,-1,-1,-1,-1,-1,-1,-1],"split_conditions":[9.966034E-1,-1.2064015E-2,-8.832755E-3,9.9363303E-1,-5.239656E-3,3E0,9.9909174E-1,2.3204986E-2,-9.2457175E-2,1.893475E-2,8.529345E-2,-5.7459928E-2,1.042045E-2,2.5534183E-2,-2.712026E-3],"split_indices":[3,4,14,12,1,18,3,0,0,0,0,0,0,0,0],"split_type":[0,0,0,0,0,0,0,0,0,0,0,0,0,0,0],"sum_hessian":[4.2332607E3,1.2103716E2,4.112223E3,1.7030731E1,1.0400643E2,2.570917E2,3.8551316E3,6.5727787E0,1.04579525E1,2.4054848E1,7.9951584E1,2.1040685E2,4.6684868E1,6.285919E2,3.2265398E3],"tree_param":{"num_deleted":"0","num_feature":"32","num_nodes":"15","size_leaf_vector":"1"}},{"base_weights":[-2.8622805E-3,1.5221992E-2,-4.3430966E-1,-6.2037766E-2,1.2752266E-1,-7.799134E-1,-2.9883298E-1,-2.000033E-2,2.8646542E-5,5.4629366E-3,2.7419815E-2,1.8249889E-3,-9.2183255E-2,1.8553475E-3,-5.27569E-2],"categories":[],"categories_nodes":[],"categories_segments":[],"categories_sizes":[],"default_left":[0,0,0,0,0,0,0,0,0,0,0,0,0,0,0],"id":39,"left_children":[1,3,5,7,9,11,13,-1,-1,-1,-1,-1,-1,-1,-1],"loss_changes":[3.287577E1,3.5096565E1,7.703459E0,2.0607075E1,1.7611599E1,5.35359E0,8.967862E0,0E0,0E0,0E0,0E0,0E0,0E0,0E0,0E0],"parents":[2147483647,0,0,1,1,2,2,3,3,4,4,5,5,6,6],"right_children":[2,4,6,8,10,12,14,-1,-1,-1,-1,-1,-1,-1,-1],"split_conditions":[8.006672E-1,1.3643734E-3,9.417415E-5,-8.4364484E-4,1.2776347E-2,-1.1692566E-4,4.137E1,-2.000033E-2,2.8646542E-5,5.4629366E-3,2.7419815E-2,1.8249889E-3,-9.2183255E-2,1.8553475E-3,-5.27569E-2],"split_indices":[26,9,0,1,8,22,28,0,0,0,0,0,0,0,0],"split_type":[0,0,0,0,0,0,0,0,0,0,0,0,0,0,0],"sum_hessian":[4.211692E3,4.0431853E3,1.6850684E2,2.3955564E3,1.6476289E3,4.6113514E1,1.22393326E2,7.4473865E2,1.6508176E3,1.1015594E3,5.4606946E2,7.0930567E0,3.902046E1,5.1647648E1,7.0745674E1],"tree_param":{"num_deleted":"0","num_feature":"32","num_nodes":"15","size_leaf_vector":"1"}},{"base_weights":[-2.744377E-4,-9.6622914E-2,9.189946E-2,1.5996477E-2,-2.663824E-1,2.1578553E-1,-7.4775256E-2,-1.1801132E-2,1.9067254E-2,-6.551566E-2,-1.486558E-2,1.3962551E-2,6.7673415E-2,-2.5239909E-2,1.2236245E-2],"categories":[],"categories_nodes":[],"categories_segments":[],"categories_sizes":[],"default_left":[0,0,0,0,0,0,0,0,0,0,0,0,0,0,0],"id":40,"left_children":[1,3,5,7,9,11,13,-1,-1,-1,-1,-1,-1,-1,-1],"loss_changes":[3.755073E1,3.9527954E1,4.4637215E1,2.9136717E1,3.7641838E1,4.343166E1,3.231985E1,0E0,0E0,0E0,0E0,0E0,0E0,0E0,0E0],"parents":[2147483647,0,0,1,1,2,2,3,3,4,4,5,5,6,6],"right_children":[2,4,6,8,10,12,14,-1,-1,-1,-1,-1,-1,-1,-1],"split_conditions":[1E0,9.9965364E-1,1.0007788E0,-3.4709554E-3,-1.1689443E-3,3.4929176E-3,5.8844443E-3,-1.1801132E-2,1.9067254E-2,-6.551566E-2,-1.486558E-2,1.3962551E-2,6.7673415E-2,-2.5239909E-2,1.2236245E-2],"split_indices":[15,3,3,14,14,14,14,0,0,0,0,0,0,0,0],"split_type":[0,0,0,0,0,0,0,0,0,0,0,0,0,0,0],"sum_hessian":[4.226298E3,2.0663325E3,2.1599653E3,1.2427745E3,8.235579E2,1.2388544E3,9.21111E2,7.0343695E2,5.393376E2,1.9035948E2,6.331984E2,1.0643076E3,1.7454681E2,4.8438922E2,4.3672177E2],"tree_param":{"num_deleted":"0","num_feature":"32","num_nodes":"15","size_leaf_vector":"1"}},{"base_weights":[1.9352752E-3,3.1379554E-1,-2.4939455E-2,9.058112E-2,5.8452815E-1,-3.5225695E-1,1.4034181E-2,3.954199E-2,-1.773945E-2,-6.4593874E-2,6.505864E-2,-5.2974284E-2,-5.57243E-3,-4.327261E-2,3.6600574E-3],"categories":[],"categories_nodes":[],"categories_segments":[],"categories_sizes":[],"default_left":[0,0,0,0,0,0,0,0,0,0,0,0,0,0,0],"id":41,"left_children":[1,3,5,7,9,11,13,-1,-1,-1,-1,-1,-1,-1,-1],"loss_changes":[3.5408676E1,2.0202972E1,4.9624535E1,1.5174538E1,1.2717308E1,2.1754295E1,3.506782E1,0E0,0E0,0E0,0E0,0E0,0E0,0E0,0E0],"parents":[2147483647,0,0,1,1,2,2,3,3,4,4,5,5,6,6],"right_children":[2,4,6,8,10,12,14,-1,-1,-1,-1,-1,-1,-1,-1],"split_conditions":[9.9791056E-1,-9.564042E-3,-1.6260069E-3,9.966034E-1,-4.8457296E-3,1.3643734E-3,-6.610749E-3,3.954199E-2,-1.773945E-2,-6.4593874E-2,6.505864E-2,-5.2974284E-2,-5.57243E-3,-4.327261E-2,3.6600574E-3],"split_indices":[3,14,0,3,0,9,14,0,0,0,0,0,0,0,0],"split_type":[0,0,0,0,0,0,0,0,0,0,0,0,0,0,0],"sum_hessian":[4.2228604E3,3.3418845E2,3.888672E3,1.8390034E2,1.502881E2,4.1290216E2,3.47577E3,8.581028E1,9.809006E1,7.2099533E0,1.4307816E2,2.57808E2,1.5509416E2,1.6624973E2,3.3095203E3],"tree_param":{"num_deleted":"0","num_feature":"32","num_nodes":"15","size_leaf_vector":"1"}},{"base_weights":[1.1335371E-2,-3.4091417E-2,1.7300239E-1,3.496241E-2,-1.4723681E-1,2.7810606E-1,6.1840616E-2,-3.9393897E-3,1.6219394E-2,-1.902675E-2,4.366406E-2,2.0710118E-2,5.0943293E-2,1.5882248E-2,-2.1021431E-2],"categories":[],"categories_nodes":[],"categories_segments":[],"categories_sizes":[],"default_left":[0,0,0,0,0,0,0,0,0,0,0,0,0,0,0],"id":42,"left_children":[1,3,5,7,9,11,13,-1,-1,-1,-1,-1,-1,-1,-1],"loss_changes":[3.0808975E1,2.5593971E1,1.073399E1,1.9255081E1,3.1274427E1,7.6588097E0,1.1866747E1,0E0,0E0,0E0,0E0,0E0,0E0,0E0,0E0],"parents":[2147483647,0,0,1,1,2,2,3,3,4,4,5,5,6,6],"right_children":[2,4,6,8,10,12,14,-1,-1,-1,-1,-1,-1,-1,-1],"split_conditions":[6.3194717E1,5.488589E-1,5.3129584E-1,1.7866418E-4,2.8856283E-3,6.024437E-3,1.0075682E0,-3.9393897E-3,1.6219394E-2,-1.902675E-2,4.366406E-2,2.0710118E-2,5.0943293E-2,1.5882248E-2,-2.1021431E-2],"split_indices":[2,26,26,14,0,14,7,0,0,0,0,0,0,0,0],"split_type":[0,0,0,0,0,0,0,0,0,0,0,0,0,0,0],"sum_hessian":[4.193311E3,3.274109E3,9.192021E2,2.0336449E3,1.2404639E3,4.7170364E2,4.4749847E2,1.2839644E3,7.4968054E2,1.1559469E3,8.451705E1,3.6237067E2,1.0933297E2,3.3020392E2,1.1729455E2],"tree_param":{"num_deleted":"0","num_feature":"32","num_nodes":"15","size_leaf_vector":"1"}},{"base_weights":[-3.3726771E-3,-3.5497133E-2,2.1729168E-1,9.378096E-3,-2.7688843E-1,2.7801308E-1,-3.7891567E-1,-3.0212018E-3,2.5981342E-2,-4.0909972E-2,4.6836142E-4,2.1041345E-2,7.154916E-2,-7.7812515E-2,3.948089E-2],"categories":[],"categories_nodes":[],"categories_segments":[],"categories_sizes":[],"default_left":[0,0,0,0,0,0,0,0,0,0,0,0,0,0,0],"id":43,"left_children":[1,3,5,7,9,11,13,-1,-1,-1,-1,-1,-1,-1,-1],"loss_changes":[2.9796408E1,3.974809E1,1.9443478E1,3.0693035E1,2.1414967E1,1.4203426E1,1.5688507E1,0E0,0E0,0E0,0E0,0E0,0E0,0E0,0E0],"parents":[2147483647,0,0,1,1,2,2,3,3,4,4,5,5,6,6],"right_children":[2,4,6,8,10,12,14,-1,-1,-1,-1,-1,-1,-1,-1],"split_conditions":[6.883881E1,1.001034E0,1.0045731E0,2.1351369E-3,4.2155655E-3,6.1586257E-3,1.8702859E-2,-3.0212018E-3,2.5981342E-2,-4.0909972E-2,4.6836142E-4,2.1041345E-2,7.154916E-2,-7.7812515E-2,3.948089E-2],"split_indices":[2,3,3,4,4,4,9,0,0,0,0,0,0,0,0],"split_type":[0,0,0,0,0,0,0,0,0,0,0,0,0,0,0],"sum_hessian":[4.2012656E3,3.6681003E3,5.3316516E2,3.0938984E3,5.74202E2,4.8436792E2,4.8797283E1,2.672323E3,4.215753E2,3.9042584E2,1.8377617E2,4.2082288E2,6.354502E1,3.2185318E1,1.6611965E1],"tree_param":{"num_deleted":"0","num_feature":"32","num_nodes":"15","size_leaf_vector":"1"}},{"base_weights":[7.2366856E-3,1.0275805E-1,-9.332016E-2,-2.7106894E-2,2.6711714E-1,-2.7668837E-1,4.0805258E-2,1.4069321E-2,-2.3199588E-2,1.90566E-2,4.7330186E-2,-5.4502595E-2,-1.6441552E-2,1.3956253E-2,-2.6126876E-2],"categories":[],"categories_nodes":[],"categories_segments":[],"categories_sizes":[],"default_left":[0,0,0,0,0,0,0,0,0,0,0,0,0,0,0],"id":44,"left_children":[1,3,5,7,9,11,13,-1,-1,-1,-1,-1,-1,-1,-1],"loss_changes":[4.0327103E1,4.5963593E1,5.0314903E1,4.141488E1,1.4910942E1,2.5945587E1,3.5302433E1,0E0,0E0,0E0,0E0,0E0,0E0,0E0,0E0],"parents":[2147483647,0,0,1,1,2,2,3,3,4,4,5,5,6,6],"right_children":[2,4,6,8,10,12,14,-1,-1,-1,-1,-1,-1,-1,-1],"split_conditions":[1.0000674E0,-4.8022363E-3,2.3314534E-3,9.9899024E-1,4.0276136E-4,1E0,1.0021638E0,1.4069321E-2,-2.3199588E-2,1.90566E-2,4.7330186E-2,-5.4502595E-2,-1.6441552E-2,1.3956253E-2,-2.6126876E-2],"split_indices":[3,8,14,3,0,15,3,0,0,0,0,0,0,0,0],"split_type":[0,0,0,0,0,0,0,0,0,0,0,0,0,0,0],"sum_hessian":[4.196412E3,2.1520789E3,2.0443331E3,1.2026582E3,9.4942053E2,8.631811E2,1.1811521E3,6.613438E2,5.4131445E2,6.937668E2,2.5565373E2,2.5348502E2,6.096961E2,8.9054395E2,2.906082E2],"tree_param":{"num_deleted":"0","num_feature":"32","num_nodes":"15","size_leaf_vector":"1"}},{"base_weights":[1.1388361E-3,-3.056186E-2,2.1429384E-1,2.9377237E-2,-2.2037789E-1,2.739143E-1,-3.876753E-1,-2.2312415E-4,5.110885E-2,-5.701228E-2,-1.3662459E-2,1.9307518E-2,8.035595E-2,-1.1884209E-1,-9.829501E-3],"categories":[],"categories_nodes":[],"categories_segments":[],"categories_sizes":[],"default_left":[0,0,0,0,0,0,0,0,0,0,0,0,0,0,0],"id":45,"left_children":[1,3,5,7,9,11,13,-1,-1,-1,-1,-1,-1,-1,-1],"loss_changes":[2.8245098E1,4.1407482E1,1.9528748E1,4.2123737E1,2.5506516E1,2.095277E1,1.1279864E1,0E0,0E0,0E0,0E0,0E0,0E0,0E0,0E0],"parents":[2147483647,0,0,1,1,2,2,3,3,4,4,5,5,6,6],"right_children":[2,4,6,8,10,12,14,-1,-1,-1,-1,-1,-1,-1,-1],"split_conditions":[6.883881E1,1.0006602E0,1.0045731E0,1.2776347E-2,1.41631E-3,2.766287E-3,3.2850858E-2,-2.2312415E-4,5.110885E-2,-5.701228E-2,-1.3662459E-2,1.9307518E-2,8.035595E-2,-1.1884209E-1,-9.829501E-3],"split_indices":[2,3,3,8,14,1,8,0,0,0,0,0,0,0,0],"split_type":[0,0,0,0,0,0,0,0,0,0,0,0,0,0,0],"sum_hessian":[4.178054E3,3.6378804E3,5.401738E2,2.7654626E3,8.7241785E2,4.9199084E2,4.8182987E1,2.596109E3,1.6935368E2,1.6743208E2,7.049857E2,4.2802625E2,6.3964615E1,1.1965744E1,3.6217247E1],"tree_param":{"num_deleted":"0","num_feature":"32","num_nodes":"15","size_leaf_vector":"1"}},{"base_weights":[-5.023793E-4,-2.2120416E-1,2.8639711E-2,2.2991385E-1,-2.7394396E-1,3.4247985E-1,-1.1300205E-3,-4.1713864E-2,6.903567E-2,-8.786925E-2,-2.1868424E-2,-1.8658898E-3,4.7836524E-2,-1.5815727E-2,6.380338E-3],"categories":[],"categories_nodes":[],"categories_segments":[],"categories_sizes":[],"default_left":[0,0,0,0,0,0,0,0,0,0,0,0,0,0,0],"id":46,"left_children":[1,3,5,7,9,11,13,-1,-1,-1,-1,-1,-1,-1,-1],"loss_changes":[2.6810385E1,1.1630949E1,3.4403584E1,1.5612572E1,1.4370777E1,1.5664749E1,3.4312935E1,0E0,0E0,0E0,0E0,0E0,0E0,0E0,0E0],"parents":[2147483647,0,0,1,1,2,2,3,3,4,4,5,5,6,6],"right_children":[2,4,6,8,10,12,14,-1,-1,-1,-1,-1,-1,-1,-1],"split_conditions":[-8.286895E-3,9.961157E-1,9.9838567E-1,-9.7614275E-3,-1.2097183E-2,-4.8071276E-3,-1.4903418E-3,-4.1713864E-2,6.903567E-2,-8.786925E-2,-2.1868424E-2,-1.8658898E-3,4.7836524E-2,-1.5815727E-2,6.380338E-3],"split_indices":[9,3,3,4,14,4,14,0,0,0,0,0,0,0,0],"split_type":[0,0,0,0,0,0,0,0,0,0,0,0,0,0,0],"sum_hessian":[4.166483E3,4.8521487E2,3.6812678E3,5.0436787E1,4.3477808E2,3.1802826E2,3.3632397E3,2.1008274E1,2.9428514E1,3.515454E1,3.9962354E2,8.718412E1,2.3084415E2,9.834778E2,2.379762E3],"tree_param":{"num_deleted":"0","num_feature":"32","num_nodes":"15","size_leaf_vector":"1"}},{"base_weights":[-1.5110382E-3,-1.7943066E-1,3.3919103E-2,-4.0420344E-1,-1.01763934E-1,5.2275527E-2,-3.7160137E-1,4.1489862E-2,-4.5876667E-2,-3.9024104E-3,-4.40134E-2,1.4951736E-2,-2.1525694E-3,4.1516446E-2,-4.186737E-2],"categories":[],"categories_nodes":[],"categories_segments":[],"categories_sizes":[],"default_left":[0,0,0,0,0,0,0,0,0,0,0,0,0,0,0],"id":47,"left_children":[1,3,5,7,9,11,13,-1,-1,-1,-1,-1,-1,-1,-1],"loss_changes":[2.6344402E1,1.2074612E1,2.5962929E1,8.140675E0,1.0961142E1,2.3938118E1,5.768074E0,0E0,0E0,0E0,0E0,0E0,0E0,0E0,0E0],"parents":[2147483647,0,0,1,1,2,2,3,3,4,4,5,5,6,6],"right_children":[2,4,6,8,10,12,14,-1,-1,-1,-1,-1,-1,-1,-1],"split_conditions":[3.4639446E1,-1.0617328E-2,8.006672E-1,1.451257E1,-1.9102222E-4,1.0002298E0,2.5190237E1,4.1489862E-2,-4.5876667E-2,-3.9024104E-3,-4.40134E-2,1.4951736E-2,-2.1525694E-3,4.1516446E-2,-4.186737E-2],"split_indices":[2,9,26,11,24,7,6,0,0,0,0,0,0,0,0],"split_type":[0,0,0,0,0,0,0,0,0,0,0,0,0,0,0],"sum_hessian":[4.1772197E3,6.9301917E2,3.4842004E3,1.7688826E2,5.161309E2,3.334147E3,1.5005351E2,1.0634802E1,1.6625345E2,4.3634088E2,7.979004E1,1.4381666E3,1.8959803E3,8.029473E0,1.4202403E2],"tree_param":{"num_deleted":"0","num_feature":"32","num_nodes":"15","size_leaf_vector":"1"}},{"base_weights":[-1.4489907E-2,-4.8288472E-2,1.635716E-1,-2.3212682E-2,-4.1541344E-1,2.660773E-1,-1.375704E-1,1.11436965E-2,-6.7852708E-3,3.0720344E-2,-4.8675783E-2,-6.1609592E-2,2.9238192E-2,-7.233635E-2,1.4625273E-2],"categories":[],"categories_nodes":[],"categories_segments":[],"categories_sizes":[],"default_left":[0,0,0,0,0,0,0,0,0,0,0,0,0,0,0],"id":48,"left_children":[1,3,5,7,9,11,13,-1,-1,-1,-1,-1,-1,-1,-1],"loss_changes":[2.4976336E1,3.209802E1,2.0474731E1,1.9637375E1,1.1642677E1,1.1650455E1,2.8170382E1,0E0,0E0,0E0,0E0,0E0,0E0,0E0,0E0],"parents":[2147483647,0,0,1,1,2,2,3,3,4,4,5,5,6,6],"right_children":[2,4,6,8,10,12,14,-1,-1,-1,-1,-1,-1,-1,-1],"split_conditions":[1.5054013E-3,1.102376E-3,1.7718909E-3,3.4519005E-1,-1.9189975E-3,-1.5959775E-2,2.6848672E-3,1.11436965E-2,-6.7852708E-3,3.0720344E-2,-4.8675783E-2,-6.1609592E-2,2.9238192E-2,-7.233635E-2,1.4625273E-2],"split_indices":[1,22,22,26,0,9,0,0,0,0,0,0,0,0,0],"split_type":[0,0,0,0,0,0,0,0,0,0,0,0,0,0,0],"sum_hessian":[4.1478057E3,3.4867083E3,6.610972E2,3.264777E3,2.219313E2,4.9329947E2,1.6779774E2,8.1250037E2,2.4522766E3,1.9645405E1,2.022859E2,1.3634069E1,4.796654E2,5.4259953E1,1.1353779E2],"tree_param":{"num_deleted":"0","num_feature":"32","num_nodes":"15","size_leaf_vector":"1"}},{"base_weights":[2.8495048E-3,2.1934854E-2,-3.3071604E-1,-6.2802774E-3,3.910447E-1,-5.944352E-1,1.4870474E-3,9.649925E-3,-7.907413E-3,3.133596E-2,9.021088E-2,-1.2170037E-1,-4.210986E-2,1.8510666E-2,-8.730285E-2],"categories":[],"categories_nodes":[],"categories_segments":[],"categories_sizes":[],"default_left":[0,0,0,0,0,0,0,0,0,0,0,0,0,0,0],"id":49,"left_children":[1,3,5,7,9,11,13,-1,-1,-1,-1,-1,-1,-1,-1],"loss_changes":[2.6437119E1,4.0908848E1,1.9690363E1,2.7315117E1,1.0791897E1,1.3007908E1,1.6292614E1,0E0,0E0,0E0,0E0,0E0,0E0,0E0,0E0],"parents":[2147483647,0,0,1,1,2,2,3,3,4,4,5,5,6,6],"right_children":[2,4,6,8,10,12,14,-1,-1,-1,-1,-1,-1,-1,-1],"split_conditions":[1.002645E0,2.0399652E-2,3.175983E-2,9.996653E-1,4.286541E-2,5.7070004E1,1.0072521E0,9.649925E-3,-7.907413E-3,3.133596E-2,9.021088E-2,-1.2170037E-1,-4.210986E-2,1.8510666E-2,-8.730285E-2],"split_indices":[3,8,8,3,8,2,3,0,0,0,0,0,0,0,0],"split_type":[0,0,0,0,0,0,0,0,0,0,0,0,0,0,0],"sum_hessian":[4.1505815E3,3.9268372E3,2.237444E2,3.648895E3,2.7794223E2,1.2428861E2,9.9455795E1,1.5127203E3,2.1361746E3,2.4266823E2,3.5274014E1,2.5756977E1,9.853163E1,8.284863E1,1.6607166E1],"tree_param":{"num_deleted":"0","num_feature":"32","num_nodes":"15","size_leaf_vector":"1"}},{"base_weights":[9.6852025E-3,-2.635392E-2,2.0177355E-1,-2.2880365E-3,-3.9687616E-1,2.9467556E-1,-6.023211E-2,-2.4040801E-2,3.2907089E-3,5.189955E-2,-4.5627646E-2,1.9305937E-2,4.5115303E-2,-5.6332875E-2,1.773184E-2],"categories":[],"categories_nodes":[],"categories_segments":[],"categories_sizes":[],"default_left":[0,0,0,0,0,0,0,0,0,0,0,0,0,0,0],"id":50,"left_children":[1,3,5,7,9,11,13,-1,-1,-1,-1,-1,-1,-1,-1],"loss_changes":[2.8749289E1,3.1182306E1,1.5986845E1,2.7536654E1,1.1839905E1,7.6167297E0,2.0723099E1,0E0,0E0,0E0,0E0,0E0,0E0,0E0,0E0],"parents":[2147483647,0,0,1,1,2,2,3,3,4,4,5,5,6,6],"right_children":[2,4,6,8,10,12,14,-1,-1,-1,-1,-1,-1,-1,-1],"split_conditions":[1.5054013E-3,1.1281723E-3,1.7718909E-3,-2.0371238E-3,-1.1243479E-3,7.611824E-4,2.6848672E-3,-2.4040801E-2,3.2907089E-3,5.189955E-2,-4.5627646E-2,1.9305937E-2,4.5115303E-2,-5.6332875E-2,1.773184E-2],"split_indices":[1,22,22,1,24,22,0,0,0,0,0,0,0,0,0],"split_type":[0,0,0,0,0,0,0,0,0,0,0,0,0,0,0],"sum_hessian":[4.1511353E3,3.4960737E3,6.550615E2,3.2837935E3,2.1228032E2,4.8349808E2,1.7156348E2,4.2210733E2,2.861686E3,1.2457979E1,1.9982234E2,2.9449036E2,1.8900772E2,5.458633E1,1.1697714E2],"tree_param":{"num_deleted":"0","num_feature":"32","num_nodes":"15","size_leaf_vector":"1"}},{"base_weights":[-3.6201773E-3,3.3703767E-2,-1.8436019E-1,4.372302E-3,5.696273E-1,-3.5136238E-1,3.5822403E-2,-5.525452E-3,1.4064047E-2,4.208093E-2,8.9257695E-2,-4.7852322E-2,-6.123317E-3,2.1104937E-2,-3.0938407E-2],"categories":[],"categories_nodes":[],"categories_segments":[],"categories_sizes":[],"default_left":[0,0,0,0,0,0,0,0,0,0,0,0,0,0,0],"id":51,"left_children":[1,3,5,7,9,11,13,-1,-1,-1,-1,-1,-1,-1,-1],"loss_changes":[2.7810892E1,5.3711884E1,2.5959156E1,2.6339752E1,8.145863E0,1.477829E1,1.8530392E1,0E0,0E0,0E0,0E0,0E0,0E0,0E0,0E0],"parents":[2147483647,0,0,1,1,2,2,3,3,4,4,5,5,6,6],"right_children":[2,4,6,8,10,12,14,-1,-1,-1,-1,-1,-1,-1,-1],"split_conditions":[1.0012133E0,6.024437E-3,8.323695E-3,2.97465E-3,9.394947E-3,1.6174049E-3,1.0035627E0,-5.525452E-3,1.4064047E-2,4.208093E-2,8.9257695E-2,-4.7852322E-2,-6.123317E-3,2.1104937E-2,-3.0938407E-2],"split_indices":[3,14,14,8,14,0,3,0,0,0,0,0,0,0,0],"split_type":[0,0,0,0,0,0,0,0,0,0,0,0,0,0,0],"sum_hessian":[4.120697E3,3.4160706E3,7.046264E2,3.2397642E3,1.7630637E2,4.0036514E2,3.0426126E2,2.2540532E3,9.857109E2,1.2226746E2,5.4038902E1,2.7791034E2,1.2245479E2,2.02076E2,1.0218524E2],"tree_param":{"num_deleted":"0","num_feature":"32","num_nodes":"15","size_leaf_vector":"1"}},{"base_weights":[-6.30476E-3,2.0595916E-2,-2.4834704E-1,-1.9589787E-2,2.9158956E-1,-4.386643E-1,6.400889E-3,4.343055E-3,-1.8304983E-2,2.236716E-2,7.728877E-2,-5.3312242E-2,1.0700366E-2,9.301181E-3,-7.3894076E-2],"categories":[],"categories_nodes":[],"categories_segments":[],"categories_sizes":[],"default_left":[0,0,0,0,0,0,0,0,0,0,0,0,0,0,0],"id":52,"left_children":[1,3,5,7,9,11,13,-1,-1,-1,-1,-1,-1,-1,-1],"loss_changes":[2.712596E1,4.08393E1,2.0206022E1,3.36554E1,1.5657928E1,1.2351593E1,1.1635437E1,0E0,0E0,0E0,0E0,0E0,0E0,0E0,0E0],"parents":[2147483647,0,0,1,1,2,2,3,3,4,4,5,5,6,6],"right_children":[2,4,6,8,10,12,14,-1,-1,-1,-1,-1,-1,-1,-1],"split_conditions":[1.0018445E0,1.2294478E-2,2.605605E-2,1.0002913E0,8.832002E-3,1.0264963E0,1.0072521E0,4.343055E-3,-1.8304983E-2,2.236716E-2,7.728877E-2,-5.3312242E-2,1.0700366E-2,9.301181E-3,-7.3894076E-2],"split_indices":[3,8,8,3,14,12,3,0,0,0,0,0,0,0,0],"split_type":[0,0,0,0,0,0,0,0,0,0,0,0,0,0,0],"sum_hessian":[4.164324E3,3.7486162E3,4.157078E2,3.265328E3,4.8328842E2,2.37531E2,1.7817677E2,2.357249E3,9.080788E2,4.248069E2,5.8481525E1,2.0250012E2,3.50309E1,1.6041167E2,1.7765106E1],"tree_param":{"num_deleted":"0","num_feature":"32","num_nodes":"15","size_leaf_vector":"1"}},{"base_weights":[1.0187403E-2,2.1700774E-1,-1.2572758E-2,-1.20217726E-1,3.491443E-1,-2.2510573E-1,3.3267096E-2,2.6340649E-2,-3.368526E-2,1.3901463E-3,5.0894655E-2,-3.7752982E-2,2.2285865E-3,2.1561628E-2,-1.398263E-3],"categories":[],"categories_nodes":[],"categories_segments":[],"categories_sizes":[],"default_left":[0,0,0,0,0,0,0,0,0,0,0,0,0,0,0],"id":53,"left_children":[1,3,5,7,9,11,13,-1,-1,-1,-1,-1,-1,-1,-1],"loss_changes":[1.9573381E1,1.8410662E1,3.6505913E1,9.79515E0,1.5873459E1,2.5076637E1,2.6561909E1,0E0,0E0,0E0,0E0,0E0,0E0,0E0,0E0],"parents":[2147483647,0,0,1,1,2,2,3,3,4,4,5,5,6,6],"right_children":[2,4,6,8,10,12,14,-1,-1,-1,-1,-1,-1,-1,-1],"split_conditions":[9.981832E-1,-5.3486105E-2,-3.4709554E-3,9.961157E-1,-2.8328302E-3,5.181851E1,9.9965364E-1,2.6340649E-2,-3.368526E-2,1.3901463E-3,5.0894655E-2,-3.7752982E-2,2.2285865E-3,2.1561628E-2,-1.398263E-3],"split_indices":[3,13,14,3,0,2,3,0,0,0,0,0,0,0,0],"split_type":[0,0,0,0,0,0,0,0,0,0,0,0,0,0,0],"sum_hessian":[4.156543E3,4.1122546E2,3.7453176E3,1.1579514E2,2.9543033E2,6.6379095E2,3.0815266E3,4.171281E1,7.408234E1,9.571679E1,1.9971353E2,4.1040454E2,2.533864E2,6.3342163E2,2.448105E3],"tree_param":{"num_deleted":"0","num_feature":"32","num_nodes":"15","size_leaf_vector":"1"}},{"base_weights":[1.2350634E-3,1.8988978E-2,-3.251597E-1,3.1381455E-4,5.542844E-1,-5.0660425E-1,2.508373E-1,-6.812297E-3,1.087282E-2,-5.5805515E-3,6.943791E-2,-6.1307814E-2,1.3455282E-2,5.5799503E-2,-6.511884E-2],"categories":[],"categories_nodes":[],"categories_segments":[],"categories_sizes":[],"default_left":[0,0,0,0,0,0,0,0,0,0,0,0,0,0,0],"id":54,"left_children":[1,3,5,7,9,11,13,-1,-1,-1,-1,-1,-1,-1,-1],"loss_changes":[2.3870691E1,3.9054714E1,2.2336653E1,2.8024035E1,1.1295395E1,1.1137112E1,1.4652965E1,0E0,0E0,0E0,0E0,0E0,0E0,0E0,0E0],"parents":[2147483647,0,0,1,1,2,2,3,3,4,4,5,5,6,6],"right_children":[2,4,6,8,10,12,14,-1,-1,-1,-1,-1,-1,-1,-1],"split_conditions":[1.002645E0,2.8856283E-3,9.44884E-3,2.5129663E-3,1.5140946E-4,1.0146805E0,1.0072521E0,-6.812297E-3,1.087282E-2,-5.5805515E-3,6.943791E-2,-6.1307814E-2,1.3455282E-2,5.5799503E-2,-6.511884E-2],"split_indices":[3,0,4,8,22,7,3,0,0,0,0,0,0,0,0],"split_type":[0,0,0,0,0,0,0,0,0,0,0,0,0,0,0],"sum_hessian":[4.117275E3,3.9057666E3,2.1150844E2,3.7750642E3,1.307023E2,1.6093336E2,5.0575073E1,2.314441E3,1.4606235E3,2.4520626E1,1.0618167E2,1.3805159E2,2.2881763E1,3.801247E1,1.2562605E1],"tree_param":{"num_deleted":"0","num_feature":"32","num_nodes":"15","size_leaf_vector":"1"}},{"base_weights":[-1.1274323E-3,-1.9496402E-1,2.1891871E-2,-8.103778E-2,-5.413542E-1,1.3021646E-1,-1.7871255E-2,9.144726E-3,-3.050196E-2,-6.232653E-2,7.1411054E-3,5.950932E-2,1.0261867E-2,-5.3654492E-2,2.9060734E-4],"categories":[],"categories_nodes":[],"categories_segments":[],"categories_sizes":[],"default_left":[0,0,0,0,0,0,0,0,0,0,0,0,0,0,0],"id":55,"left_children":[1,3,5,7,9,11,13,-1,-1,-1,-1,-1,-1,-1,-1],"loss_changes":[1.8287613E1,1.7124878E1,1.5782305E1,1.2721354E1,5.4401493E0,1.2560865E1,2.8890606E1,0E0,0E0,0E0,0E0,0E0,0E0,0E0,0E0],"parents":[2147483647,0,0,1,1,2,2,3,3,4,4,5,5,6,6],"right_children":[2,4,6,8,10,12,14,-1,-1,-1,-1,-1,-1,-1,-1],"split_conditions":[-2.0371238E-3,6.299285E0,-6.1804167E-4,-6.7815403E-3,7.012062E1,8.128714E-5,-2.2431644E-2,9.144726E-3,-3.050196E-2,-6.232653E-2,7.1411054E-3,5.950932E-2,1.0261867E-2,-5.3654492E-2,2.9060734E-4],"split_indices":[1,20,24,14,11,25,8,0,0,0,0,0,0,0,0],"split_type":[0,0,0,0,0,0,0,0,0,0,0,0,0,0,0],"sum_hessian":[4.096582E3,4.3406027E2,3.662522E3,3.2756085E2,1.0649942E2,9.8281525E2,2.6797068E3,1.8538802E2,1.4217282E2,9.3926674E1,1.2572745E1,5.3923683E1,9.2889154E2,1.0225466E2,2.577452E3],"tree_param":{"num_deleted":"0","num_feature":"32","num_nodes":"15","size_leaf_vector":"1"}},{"base_weights":[-4.6367575E-3,-4.8484612E-2,1.12952694E-1,5.512515E-4,-2.3722707E-1,2.2560707E-1,-1.1505642E-2,-6.773797E-3,1.5089596E-2,-3.9242767E-2,-6.251298E-3,1.9627381E-2,7.088373E-2,1.3184518E-3,-1.0459047E-1],"categories":[],"categories_nodes":[],"categories_segments":[],"categories_sizes":[],"default_left":[0,0,0,0,0,0,0,0,0,0,0,0,0,0,0],"id":56,"left_children":[1,3,5,7,9,11,13,-1,-1,-1,-1,-1,-1,-1,-1],"loss_changes":[2.1223633E1,2.7748674E1,1.5678192E1,2.445445E1,1.674115E1,8.179882E0,1.36042595E1,0E0,0E0,0E0,0E0,0E0,0E0,0E0,0E0],"parents":[2147483647,0,0,1,1,2,2,3,3,4,4,5,5,6,6],"right_children":[2,4,6,8,10,12,14,-1,-1,-1,-1,-1,-1,-1,-1],"split_conditions":[3.7163007E-3,1.0006602E0,5.332089E-1,1E0,4.7426578E-3,8.096303E1,1.0072521E0,-6.773797E-3,1.5089596E-2,-3.9242767E-2,-6.251298E-3,1.9627381E-2,7.088373E-2,1.3184518E-3,-1.0459047E-1],"split_indices":[9,3,26,15,14,2,3,0,0,0,0,0,0,0,0],"split_type":[0,0,0,0,0,0,0,0,0,0,0,0,0,0,0],"sum_hessian":[4.1141997E3,2.9971733E3,1.1170264E3,2.3798723E3,6.1730096E2,5.8589056E2,5.311358E2,1.6369088E3,7.4296344E2,3.2624637E2,2.9105463E2,5.536866E2,3.2203964E1,5.1971783E2,1.1417936E1],"tree_param":{"num_deleted":"0","num_feature":"32","num_nodes":"15","size_leaf_vector":"1"}},{"base_weights":[-8.620751E-3,4.0274164E-1,-2.0315638E-2,-3.3327186E-1,6.367311E-1,-3.6561286E-1,-1.0128682E-4,2.0942237E-2,-7.2664194E-2,4.107579E-3,7.847259E-2,-4.6435602E-2,1.0209194E-2,1.847167E-2,-3.7467962E-3],"categories":[],"categories_nodes":[],"categories_segments":[],"categories_sizes":[],"default_left":[0,0,0,0,0,0,0,0,0,0,0,0,0,0,0],"id":57,"left_children":[1,3,5,7,9,11,13,-1,-1,-1,-1,-1,-1,-1,-1],"loss_changes":[1.971167E1,1.971898E1,2.7803793E1,6.1251907E0,7.5743675E0,1.0221333E1,2.6001799E1,0E0,0E0,0E0,0E0,0E0,0E0,0E0,0E0],"parents":[2147483647,0,0,1,1,2,2,3,3,4,4,5,5,6,6],"right_children":[2,4,6,8,10,12,14,-1,-1,-1,-1,-1,-1,-1,-1],"split_conditions":[9.966034E-1,-9.7614275E-3,-9.29321E-3,9.9224466E-1,-5.239656E-3,3E0,9.991088E-1,2.0942237E-2,-7.2664194E-2,4.107579E-3,7.847259E-2,-4.6435602E-2,1.0209194E-2,1.847167E-2,-3.7467962E-3],"split_indices":[3,4,14,12,0,18,3,0,0,0,0,0,0,0,0],"split_type":[0,0,0,0,0,0,0,0,0,0,0,0,0,0,0],"sum_hessian":[4.0946467E3,1.1226703E2,3.98238E3,2.6979319E1,8.528771E1,2.1929762E2,3.7630823E3,1.1534255E1,1.5445064E1,1.722747E1,6.806024E1,1.810756E2,3.8222023E1,6.3220624E2,3.130876E3],"tree_param":{"num_deleted":"0","num_feature":"32","num_nodes":"15","size_leaf_vector":"1"}},{"base_weights":[4.829051E-3,-1.1455186E-1,5.8186166E-2,1.907273E-1,-1.8069723E-1,2.7455226E-1,9.553303E-3,-2.2467257E-2,3.7708905E-2,-5.511291E-2,-1.2444265E-2,6.6343315E-2,1.9353023E-2,-1.8750798E-2,8.38466E-3],"categories":[],"categories_nodes":[],"categories_segments":[],"categories_sizes":[],"default_left":[0,0,0,0,0,0,0,0,0,0,0,0,0,0,0],"id":58,"left_children":[1,3,5,7,9,11,13,-1,-1,-1,-1,-1,-1,-1,-1],"loss_changes":[2.6122234E1,2.561378E1,2.9819592E1,1.7586403E1,2.1638382E1,1.6258488E1,3.3908813E1,0E0,0E0,0E0,0E0,0E0,0E0,0E0,0E0],"parents":[2147483647,0,0,1,1,2,2,3,3,4,4,5,5,6,6],"right_children":[2,4,6,8,10,12,14,-1,-1,-1,-1,-1,-1,-1,-1],"split_conditions":[4.212904E1,9.9791056E-1,9.99362E-1,2.2775673E1,-1.7060761E-3,1.1133E2,-1.172924E-3,-2.2467257E-2,3.7708905E-2,-5.511291E-2,-1.2444265E-2,6.6343315E-2,1.9353023E-2,-1.8750798E-2,8.38466E-3],"split_indices":[2,3,3,2,0,27,8,0,0,0,0,0,0,0,0],"split_type":[0,0,0,0,0,0,0,0,0,0,0,0,0,0,0],"sum_hessian":[4.098891E3,1.2657538E3,2.8331372E3,2.2507716E2,1.0406766E3,5.190875E2,2.3140498E3,6.96413E1,1.5543587E2,1.360436E2,9.04633E2,8.826317E1,4.3082437E2,6.3313904E2,1.6809108E3],"tree_param":{"num_deleted":"0","num_feature":"32","num_nodes":"15","size_leaf_vector":"1"}},{"base_weights":[-5.1474296E-3,-1.19504884E-1,4.335718E-2,1.408292E-1,-1.7871076E-1,1.1105072E-1,-9.824136E-2,-2.2104554E-2,2.8609235E-2,-6.969829E-2,-1.34989275E-2,1.1068633E-3,2.63364E-2,-2.3554979E-2,5.4306528E-3],"categories":[],"categories_nodes":[],"categories_segments":[],"categories_sizes":[],"default_left":[0,0,0,0,0,0,0,0,0,0,0,0,0,0,0],"id":59,"left_children":[1,3,5,7,9,11,13,-1,-1,-1,-1,-1,-1,-1,-1],"loss_changes":[2.2819393E1,1.8909916E1,2.770065E1,1.2026165E1,2.2534931E1,2.9767372E1,1.9594799E1,0E0,0E0,0E0,0E0,0E0,0E0,0E0,0E0],"parents":[2147483647,0,0,1,1,2,2,3,3,4,4,5,5,6,6],"right_children":[2,4,6,8,10,12,14,-1,-1,-1,-1,-1,-1,-1,-1],"split_conditions":[4.1580807E1,9.9791056E-1,1.0007945E0,2.2102343E1,-7.4484055E-3,1.7866418E-4,5.8844443E-3,-2.2104554E-2,2.8609235E-2,-6.969829E-2,-1.34989275E-2,1.1068633E-3,2.63364E-2,-2.3554979E-2,5.4306528E-3],"split_indices":[2,3,3,2,14,14,14,0,0,0,0,0,0,0,0],"split_type":[0,0,0,0,0,0,0,0,0,0,0,0,0,0,0],"sum_hessian":[4.111993E3,1.2242238E3,2.8877693E3,2.2657451E2,9.976493E2,1.9538936E3,9.338756E2,6.474994E1,1.6182457E2,7.645183E1,9.2119745E2,1.180233E3,7.736606E2,4.9120114E2,4.4267447E2],"tree_param":{"num_deleted":"0","num_feature":"32","num_nodes":"15","size_leaf_vector":"1"}},{"base_weights":[-1.9802121E-4,2.611038E-2,-1.8529837E-1,-6.892431E-3,3.079614E-1,-3.1702384E-1,1.0858549E-1,1.1080719E-2,-6.246063E-3,6.5580616E-3,4.961699E-2,-2.4515498E-2,-8.341515E-2,3.1643637E-2,-3.6744956E-2],"categories":[],"categories_nodes":[],"categories_segments":[],"categories_sizes":[],"default_left":[0,0,0,0,0,0,0,0,0,0,0,0,0,0,0],"id":60,"left_children":[1,3,5,7,9,11,13,-1,-1,-1,-1,-1,-1,-1,-1],"loss_changes":[2.0026833E1,3.3496056E1,1.9846388E1,2.1095114E1,1.718615E1,1.2938625E1,1.5862225E1,0E0,0E0,0E0,0E0,0E0,0E0,0E0,0E0],"parents":[2147483647,0,0,1,1,2,2,3,3,4,4,5,5,6,6],"right_children":[2,4,6,8,10,12,14,-1,-1,-1,-1,-1,-1,-1,-1],"split_conditions":[1.0015899E0,4.849708E-3,1.2329002E-2,9.992558E-1,2.6019244E0,1.0033714E0,1.0050755E0,1.1080719E-2,-6.246063E-3,6.5580616E-3,4.961699E-2,-2.4515498E-2,-8.341515E-2,3.1643637E-2,-3.6744956E-2],"split_indices":[3,14,14,3,21,3,3,0,0,0,0,0,0,0,0],"split_type":[0,0,0,0,0,0,0,0,0,0,0,0,0,0,0],"sum_hessian":[4.110551E3,3.5997722E3,5.107784E2,3.2233193E3,3.7645294E2,3.526389E2,1.5813954E2,1.0334222E3,2.1898972E3,1.6513515E2,2.113178E2,3.109044E2,4.1734497E1,1.1031016E2,4.7829384E1],"tree_param":{"num_deleted":"0","num_feature":"32","num_nodes":"15","size_leaf_vector":"1"}},{"base_weights":[2.118694E-3,2.9828833E-2,-1.7365278E-1,-4.1062586E-2,1.6888012E-1,-2.618675E-1,2.3430659E-1,3.1346765E-3,-1.9311558E-2,1.3683629E-2,7.938562E-2,-3.982938E-2,-5.531389E-3,5.110807E-2,-2.8122885E-2],"categories":[],"categories_nodes":[],"categories_segments":[],"categories_sizes":[],"default_left":[0,0,0,0,0,0,0,0,0,0,0,0,0,0,0],"id":61,"left_children":[1,3,5,7,9,11,13,-1,-1,-1,-1,-1,-1,-1,-1],"loss_changes":[1.9859982E1,3.472661E1,2.0044542E1,2.5699389E1,2.3713417E1,1.285659E1,1.4305355E1,0E0,0E0,0E0,0E0,0E0,0E0,0E0,0E0],"parents":[2147483647,0,0,1,1,2,2,3,3,4,4,5,5,6,6],"right_children":[2,4,6,8,10,12,14,-1,-1,-1,-1,-1,-1,-1,-1],"split_conditions":[1.001474E0,2.97465E-3,7.722778E1,9.998938E-1,8.551745E-3,4.57082E-3,1.0041281E0,3.1346765E-3,-1.9311558E-2,1.3683629E-2,7.938562E-2,-3.982938E-2,-5.531389E-3,5.110807E-2,-2.8122885E-2],"split_indices":[3,8,2,3,14,4,3,0,0,0,0,0,0,0,0],"split_type":[0,0,0,0,0,0,0,0,0,0,0,0,0,0,0],"sum_hessian":[4.0754155E3,3.5211423E3,5.5427313E2,2.332624E3,1.1885186E3,4.5602344E2,9.82497E1,1.58068E3,7.5194385E2,1.1317122E3,5.6806305E1,2.7407306E2,1.819504E2,6.393418E1,3.431552E1],"tree_param":{"num_deleted":"0","num_feature":"32","num_nodes":"15","size_leaf_vector":"1"}},{"base_weights":[2.35356E-3,-2.2383489E-2,1.7312983E-1,3.3731457E-2,-1.10539325E-1,1.4023188E-1,5.962316E-1,-2.5529189E-3,3.1632047E-2,-3.420011E-2,-6.032159E-3,4.086528E-2,6.357323E-3,9.5408276E-2,-1.6144251E-2],"categories":[],"categories_nodes":[],"categories_segments":[],"categories_sizes":[],"default_left":[0,0,0,0,0,0,0,0,0,0,0,0,0,0,0],"id":62,"left_children":[1,3,5,7,9,11,13,-1,-1,-1,-1,-1,-1,-1,-1],"loss_changes":[1.7217789E1,1.7615097E1,7.094098E0,3.645079E1,1.6077421E1,9.8462515E0,1.0157631E1,0E0,0E0,0E0,0E0,0E0,0E0,0E0,0E0],"parents":[2147483647,0,0,1,1,2,2,3,3,4,4,5,5,6,6],"right_children":[2,4,6,8,10,12,14,-1,-1,-1,-1,-1,-1,-1,-1],"split_conditions":[6.883881E1,1.0004578E0,8.074534E1,1E0,7.98E1,1.0024462E0,-5.085653E-4,-2.5529189E-3,3.1632047E-2,-3.420011E-2,-6.032159E-3,4.086528E-2,6.357323E-3,9.5408276E-2,-1.6144251E-2],"split_indices":[2,7,6,15,27,7,24,0,0,0,0,0,0,0,0],"split_type":[0,0,0,0,0,0,0,0,0,0,0,0,0,0,0],"sum_hessian":[4.0737805E3,3.55911E3,5.146704E2,2.1751511E3,1.383959E3,4.787751E2,3.5895336E1,1.7988344E3,3.7631686E2,2.4569595E2,1.1382631E3,1.05396736E2,3.7337836E2,2.4204346E1,1.1690992E1],"tree_param":{"num_deleted":"0","num_feature":"32","num_nodes":"15","size_leaf_vector":"1"}},{"base_weights":[-5.827526E-3,-8.400851E-2,4.4527296E-2,2.4419205E-1,-1.0974271E-1,2.5419068E-1,6.206598E-3,-1.4505405E-3,5.5264797E-2,-1.5623304E-2,2.3596275E-3,3.0227808E-2,-4.7215316E-2,-1.9897582E-2,3.6371767E-3],"categories":[],"categories_nodes":[],"categories_segments":[],"categories_sizes":[],"default_left":[0,0,0,0,0,0,0,0,0,0,0,0,0,0,0],"id":63,"left_children":[1,3,5,7,9,11,13,-1,-1,-1,-1,-1,-1,-1,-1],"loss_changes":[1.6010786E1,1.3483239E1,1.9873863E1,9.276612E0,9.166294E0,1.3493769E1,1.2958683E1,0E0,0E0,0E0,0E0,0E0,0E0,0E0,0E0],"parents":[2147483647,0,0,1,1,2,2,3,3,4,4,5,5,6,6],"right_children":[2,4,6,8,10,12,14,-1,-1,-1,-1,-1,-1,-1,-1],"split_conditions":[4.549872E1,2.2860523E-1,9.987821E-1,-8.695997E-4,7.010762E-4,7.687703E-1,1E0,-1.4505405E-3,5.5264797E-2,-1.5623304E-2,2.3596275E-3,3.0227808E-2,-4.7215316E-2,-1.9897582E-2,3.6371767E-3],"split_indices":[2,26,7,4,0,26,15,0,0,0,0,0,0,0,0],"split_type":[0,0,0,0,0,0,0,0,0,0,0,0,0,0,0],"sum_hessian":[4.0650151E3,1.5922369E3,2.4727783E3,1.1515253E2,1.4770845E3,3.8124512E2,2.0915332E3,6.314593E1,5.200659E1,1.0950942E3,3.8199023E2,3.5811975E2,2.312538E1,2.6736047E2,1.8241726E3],"tree_param":{"num_deleted":"0","num_feature":"32","num_nodes":"15","size_leaf_vector":"1"}},{"base_weights":[-8.951911E-3,-7.934002E-2,5.940385E-2,-3.9858475E-2,-3.3171403E-1,2.9292253E-1,2.4123825E-2,-3.0034954E-2,-1.155205E-3,-3.811067E-2,1.1712337E-2,3.695644E-2,3.7618391E-3,3.4041875E-3,-6.763161E-2],"categories":[],"categories_nodes":[],"categories_segments":[],"categories_sizes":[],"default_left":[0,0,0,0,0,0,0,0,0,0,0,0,0,0,0],"id":64,"left_children":[1,3,5,7,9,11,13,-1,-1,-1,-1,-1,-1,-1,-1],"loss_changes":[1.9717503E1,2.0103895E1,1.7121819E1,1.2877964E1,6.0964794E0,5.323889E0,1.2578466E1,0E0,0E0,0E0,0E0,0E0,0E0,0E0,0E0],"parents":[2147483647,0,0,1,1,2,2,3,3,4,4,5,5,6,6],"right_children":[2,4,6,8,10,12,14,-1,-1,-1,-1,-1,-1,-1,-1],"split_conditions":[1E0,1.0000927E0,9.999376E-1,-2.7480759E-3,7.195348E1,5.234E-5,8.706844E-1,-3.0034954E-2,-1.155205E-3,-3.811067E-2,1.1712337E-2,3.695644E-2,3.7618391E-3,3.4041875E-3,-6.763161E-2],"split_indices":[15,7,7,0,6,30,26,0,0,0,0,0,0,0,0],"split_type":[0,0,0,0,0,0,0,0,0,0,0,0,0,0,0],"sum_hessian":[4.0960723E3,2.0179569E3,2.0781152E3,1.7459736E3,2.7198328E2,2.717957E2,1.8063196E3,1.7018924E2,1.5757844E3,2.451558E2,2.682747E1,2.0869751E2,6.3098175E1,1.7820378E3,2.4281796E1],"tree_param":{"num_deleted":"0","num_feature":"32","num_nodes":"15","size_leaf_vector":"1"}},{"base_weights":[-3.616843E-3,5.3073972E-2,-8.745431E-2,2.5423635E-2,3.4147945E-1,-2.0951281E-1,5.5426016E-2,-7.2797607E-3,9.3815625E-3,6.297278E-2,1.8735211E-2,-4.4750772E-2,-8.028383E-3,1.357677E-2,-2.6415223E-2],"categories":[],"categories_nodes":[],"categories_segments":[],"categories_sizes":[],"default_left":[0,0,0,0,0,0,0,0,0,0,0,0,0,0,0],"id":65,"left_children":[1,3,5,7,9,11,13,-1,-1,-1,-1,-1,-1,-1,-1],"loss_changes":[1.9399265E1,1.9410004E1,2.8727325E1,1.4940873E1,9.342978E0,2.728125E1,1.9533058E1,0E0,0E0,0E0,0E0,0E0,0E0,0E0,0E0],"parents":[2147483647,0,0,1,1,2,2,3,3,4,4,5,5,6,6],"right_children":[2,4,6,8,10,12,14,-1,-1,-1,-1,-1,-1,-1,-1],"split_conditions":[1.0002913E0,6.4809616E1,8.145602E-4,-6.6521857E-4,1.0020599E0,1.1417E2,1.002748E0,-7.2797607E-3,9.3815625E-3,6.297278E-2,1.8735211E-2,-4.4750772E-2,-8.028383E-3,1.357677E-2,-2.6415223E-2],"split_indices":[3,2,0,0,7,27,3,0,0,0,0,0,0,0,0],"split_type":[0,0,0,0,0,0,0,0,0,0,0,0,0,0,0],"sum_hessian":[4.0796611E3,2.4340952E3,1.6455659E3,2.22214E3,2.1195537E2,8.871948E2,7.583711E2,9.1212537E2,1.3100145E3,7.277189E1,1.3918347E2,3.1134415E2,5.758507E2,6.064782E2,1.518929E2],"tree_param":{"num_deleted":"0","num_feature":"32","num_nodes":"15","size_leaf_vector":"1"}},{"base_weights":[-2.457031E-3,-5.6007855E-2,8.392215E-2,2.9527936E-2,-1.7605755E-1,1.2566708E-1,-1.7934485E-1,-6.228894E-3,1.7662233E-2,-3.6442701E-3,-2.9621456E-2,9.921955E-3,6.174908E-2,-3.6926527E-2,1.1344525E-2],"categories":[],"categories_nodes":[],"categories_segments":[],"categories_sizes":[],"default_left":[0,0,0,0,0,0,0,0,0,0,0,0,0,0,0],"id":66,"left_children":[1,3,5,7,9,11,13,-1,-1,-1,-1,-1,-1,-1,-1],"loss_changes":[1.884043E1,2.5822926E1,1.7153202E1,1.9851364E1,1.7540318E1,1.7446795E1,1.192765E1,0E0,0E0,0E0,0E0,0E0,0E0,0E0,0E0],"parents":[2147483647,0,0,1,1,2,2,3,3,4,4,5,5,6,6],"right_children":[2,4,6,8,10,12,14,-1,-1,-1,-1,-1,-1,-1,-1],"split_conditions":[4.146743E-4,-1.1056076E-4,1.0022871E0,-6.6507206E-4,9.9992704E-1,3.4965517E-3,6.6416954E1,-6.228894E-3,1.7662233E-2,-3.6442701E-3,-2.9621456E-2,9.921955E-3,6.174908E-2,-3.6926527E-2,1.1344525E-2],"split_indices":[1,22,3,1,3,1,6,0,0,0,0,0,0,0,0],"split_type":[0,0,0,0,0,0,0,0,0,0,0,0,0,0,0],"sum_hessian":[4.0709946E3,2.5132534E3,1.5577413E3,1.4680309E3,1.0452225E3,1.3449949E3,2.1274644E2,9.042014E2,5.638294E2,4.8406863E2,5.61154E2,1.2774998E3,6.749508E1,1.2888382E2,8.3862625E1],"tree_param":{"num_deleted":"0","num_feature":"32","num_nodes":"15","size_leaf_vector":"1"}},{"base_weights":[1.7757755E-2,3.23522E-1,7.5328146E-4,1.802711E-1,6.9681454E-1,-4.3655184E-1,1.6105652E-2,3.1122837E-2,-2.444086E-2,9.756862E-3,9.371255E-2,-5.9063762E-2,9.011138E-3,-4.7514264E-2,2.6471533E-3],"categories":[],"categories_nodes":[],"categories_segments":[],"categories_sizes":[],"default_left":[0,0,0,0,0,0,0,0,0,0,0,0,0,0,0],"id":67,"left_children":[1,3,5,7,9,11,13,-1,-1,-1,-1,-1,-1,-1,-1],"loss_changes":[2.104337E1,1.1276463E1,2.5754776E1,8.720896E0,8.373739E0,1.061165E1,1.888442E1,0E0,0E0,0E0,0E0,0E0,0E0,0E0,0E0],"parents":[2147483647,0,0,1,1,2,2,3,3,4,4,5,5,6,6],"right_children":[2,4,6,8,10,12,14,-1,-1,-1,-1,-1,-1,-1,-1],"split_conditions":[9.9737644E-1,4.95104E1,-9.81102E-3,1.0518285E-3,-4.504197E-3,3E0,-7.76144E-2,3.1122837E-2,-2.444086E-2,9.756862E-3,9.371255E-2,-5.9063762E-2,9.011138E-3,-4.7514264E-2,2.6471533E-3],"split_indices":[3,6,14,25,0,18,13,0,0,0,0,0,0,0,0],"split_type":[0,0,0,0,0,0,0,0,0,0,0,0,0,0,0],"sum_hessian":[4.0463467E3,2.1222464E2,3.834122E3,1.5444092E2,5.778373E1,1.2910791E2,3.7050142E3,1.1824515E2,3.6195766E1,1.6942204E1,4.0841526E1,9.9790695E1,2.9317219E1,7.563773E1,3.6293765E3],"tree_param":{"num_deleted":"0","num_feature":"32","num_nodes":"15","size_leaf_vector":"1"}},{"base_weights":[1.2456007E-2,1.8046096E-1,-1.5012529E-2,-1.7750771E-1,2.7586338E-1,-3.357325E-1,1.05973E-2,3.919908E-2,-4.1075464E-2,7.1031014E-3,4.4397827E-2,-5.4585405E-2,-1.1055539E-2,1.575343E-2,-2.7771413E-3],"categories":[],"categories_nodes":[],"categories_segments":[],"categories_sizes":[],"default_left":[0,0,0,0,0,0,0,0,0,0,0,0,0,0,0],"id":68,"left_children":[1,3,5,7,9,11,13,-1,-1,-1,-1,-1,-1,-1,-1],"loss_changes":[1.8743729E1,1.9540504E1,2.8679483E1,1.6195332E1,1.5500019E1,1.2156183E1,1.8237427E1,0E0,0E0,0E0,0E0,0E0,0E0,0E0,0E0],"parents":[2147483647,0,0,1,1,2,2,3,3,4,4,5,5,6,6],"right_children":[2,4,6,8,10,12,14,-1,-1,-1,-1,-1,-1,-1,-1],"split_conditions":[9.985929E-1,-3.2380782E-2,-5.499547E-3,9.952567E-1,-1.7466146E-3,-3.8579723E-4,9.995918E-1,3.919908E-2,-4.1075464E-2,7.1031014E-3,4.4397827E-2,-5.4585405E-2,-1.1055539E-2,1.575343E-2,-2.7771413E-3],"split_indices":[3,8,14,3,0,10,3,0,0,0,0,0,0,0,0],"split_type":[0,0,0,0,0,0,0,0,0,0,0,0,0,0,0],"sum_hessian":[4.060025E3,5.697445E2,3.4902805E3,1.1970965E2,4.5003488E2,2.571981E2,3.2330823E3,3.4585266E1,8.512438E1,2.0350523E2,2.4652965E2,1.323102E2,1.248879E2,6.6878705E2,2.5642954E3],"tree_param":{"num_deleted":"0","num_feature":"32","num_nodes":"15","size_leaf_vector":"1"}},{"base_weights":[2.0008898E-4,3.0321393E-2,-1.3811511E-1,-9.786647E-2,7.032327E-2,-1.8546416E-1,2.1021332E-1,-1.1754508E-2,6.3276246E-2,-8.73869E-3,1.11889085E-2,-3.324158E-2,-9.411664E-3,5.6548573E-2,-1.1238716E-2],"categories":[],"categories_nodes":[],"categories_segments":[],"categories_sizes":[],"default_left":[0,0,0,0,0,0,0,0,0,0,0,0,0,0,0],"id":69,"left_children":[1,3,5,7,9,11,13,-1,-1,-1,-1,-1,-1,-1,-1],"loss_changes":[1.6835945E1,1.702275E1,1.1957768E1,1.1427862E1,1.6593044E1,8.515701E0,1.0028516E1,0E0,0E0,0E0,0E0,0E0,0E0,0E0,0E0],"parents":[2147483647,0,0,1,1,2,2,3,3,4,4,5,5,6,6],"right_children":[2,4,6,8,10,12,14,-1,-1,-1,-1,-1,-1,-1,-1],"split_conditions":[6.698525E-1,-1.1410493E-3,2.6848365E-3,3.44766E-2,-2.8524348E-3,-3.975228E-3,6.598664E-4,-1.1754508E-2,6.3276246E-2,-8.73869E-3,1.11889085E-2,-3.324158E-2,-9.411664E-3,5.6548573E-2,-1.1238716E-2],"split_indices":[26,1,1,8,14,13,23,0,0,0,0,0,0,0,0],"split_type":[0,0,0,0,0,0,0,0,0,0,0,0,0,0,0],"sum_hessian":[4.0390415E3,3.3173855E3,7.2165594E2,7.886557E2,2.5287297E3,6.3571E2,8.594591E1,7.687884E2,1.9867277E1,5.27223E2,2.0015068E3,2.4267592E2,3.930341E2,4.054345E1,4.540246E1],"tree_param":{"num_deleted":"0","num_feature":"32","num_nodes":"15","size_leaf_vector":"1"}},{"base_weights":[8.393329E-3,1.6056256E-1,-1.9671058E-2,-2.138723E-1,2.308793E-1,-1.5971637E-1,3.318002E-2,-3.9541875E-3,-7.015988E-2,-1.0064648E-3,3.3053055E-2,-6.740389E-2,-1.375186E-2,6.096219E-3,-2.277588E-2],"categories":[],"categories_nodes":[],"categories_segments":[],"categories_sizes":[],"default_left":[0,0,0,0,0,0,0,0,0,0,0,0,0,0,0],"id":70,"left_children":[1,3,5,7,9,11,13,-1,-1,-1,-1,-1,-1,-1,-1],"loss_changes":[1.7231907E1,1.65919E1,2.522259E1,8.462518E0,1.2715467E1,1.05666485E1,1.7951744E1,0E0,0E0,0E0,0E0,0E0,0E0,0E0,0E0],"parents":[2147483647,0,0,1,1,2,2,3,3,4,4,5,5,6,6],"right_children":[2,4,6,8,10,12,14,-1,-1,-1,-1,-1,-1,-1,-1],"split_conditions":[9.987065E-1,-7.0293294E-3,-1.5490284E-3,9.975407E-1,3.0148243E1,-1.0870282E-2,1.0024678E0,-3.9541875E-3,-7.015988E-2,-1.0064648E-3,3.3053055E-2,-6.740389E-2,-1.375186E-2,6.096219E-3,-2.277588E-2],"split_indices":[3,5,14,3,2,14,3,0,0,0,0,0,0,0,0],"split_type":[0,0,0,0,0,0,0,0,0,0,0,0,0,0,0],"sum_hessian":[4.0333293E3,6.272993E2,3.40603E3,9.8855385E1,5.284439E2,9.326535E2,2.4733765E3,7.362155E1,2.5233831E1,1.54875E2,3.735689E2,3.7372272E1,8.9528125E2,2.2360686E3,2.3730797E2],"tree_param":{"num_deleted":"0","num_feature":"32","num_nodes":"15","size_leaf_vector":"1"}},{"base_weights":[-5.5343015E-3,3.521749E-1,-1.5716141E-2,-2.3716559E-1,5.675902E-1,-8.4239244E-2,5.4425992E-2,7.962721E-3,-8.845899E-2,3.8994845E-2,1.18410625E-1,-6.8274996E-4,-2.7600754E-2,2.0085396E-2,-5.8030966E-3],"categories":[],"categories_nodes":[],"categories_segments":[],"categories_sizes":[],"default_left":[0,0,0,0,0,0,0,0,0,0,0,0,0,0,0],"id":71,"left_children":[1,3,5,7,9,11,13,-1,-1,-1,-1,-1,-1,-1,-1],"loss_changes":[1.468652E1,1.4302816E1,1.8846792E1,6.3421054E0,8.521374E0,2.9442112E1,3.1922018E1,0E0,0E0,0E0,0E0,0E0,0E0,0E0,0E0],"parents":[2147483647,0,0,1,1,2,2,3,3,4,4,5,5,6,6],"right_children":[2,4,6,8,10,12,14,-1,-1,-1,-1,-1,-1,-1,-1],"split_conditions":[9.966034E-1,-9.7614275E-3,3.2065203E-4,9.952567E-1,4.2631313E1,9.999037E-1,1.0005652E0,7.962721E-3,-8.845899E-2,3.8994845E-2,1.18410625E-1,-6.8274996E-4,-2.7600754E-2,2.0085396E-2,-5.8030966E-3],"split_indices":[3,4,14,3,2,3,3,0,0,0,0,0,0,0,0],"split_type":[0,0,0,0,0,0,0,0,0,0,0,0,0,0,0],"sum_hessian":[4.0298704E3,1.10602036E2,3.9192683E3,2.9578684E1,8.102335E1,1.9824128E3,1.9368555E3,2.04495E1,9.129186E0,6.416692E1,1.6856426E1,1.4130414E3,5.6937146E2,8.410087E2,1.0958467E3],"tree_param":{"num_deleted":"0","num_feature":"32","num_nodes":"15","size_leaf_vector":"1"}},{"base_weights":[1.6449679E-2,2.2943126E-2,-5.041752E-1,-3.694566E-2,8.092851E-2,-7.709093E-2,-7.5140303E-1,1.737023E-3,-2.4362786E-2,2.0324059E-2,1.8336059E-3,-5.5069715E-2,8.020974E-2,-3.614955E-3,-1.0563173E-1],"categories":[],"categories_nodes":[],"categories_segments":[],"categories_sizes":[],"default_left":[0,0,0,0,0,0,0,0,0,0,0,0,0,0,0],"id":72,"left_children":[1,3,5,7,9,11,13,-1,-1,-1,-1,-1,-1,-1,-1],"loss_changes":[1.3611401E1,1.380425E1,5.1791945E0,2.1959415E1,1.5457367E1,8.477826E0,6.788168E0,0E0,0E0,0E0,0E0,0E0,0E0,0E0,0E0],"parents":[2147483647,0,0,1,1,2,2,3,3,4,4,5,5,6,6],"right_children":[2,4,6,8,10,12,14,-1,-1,-1,-1,-1,-1,-1,-1],"split_conditions":[8.706844E-1,1E0,-2.103E-5,1.000153E0,1.0015509E0,5.308463E-4,2.724E1,1.737023E-3,-2.4362786E-2,2.0324059E-2,1.8336059E-3,-5.5069715E-2,8.020974E-2,-3.614955E-3,-1.0563173E-1],"split_indices":[26,15,29,3,7,0,28,0,0,0,0,0,0,0,0],"split_type":[0,0,0,0,0,0,0,0,0,0,0,0,0,0,0],"sum_hessian":[4.0218457E3,3.9732456E3,4.8600014E1,1.9547219E3,2.0185238E3,1.8299532E1,3.0300482E1,1.5486532E3,4.0606863E2,6.825344E2,1.3359894E3,1.2135786E1,6.1637454E0,9.390724E0,2.090976E1],"tree_param":{"num_deleted":"0","num_feature":"32","num_nodes":"15","size_leaf_vector":"1"}},{"base_weights":[-6.1374175E-4,-3.624048E-2,1.0662976E-1,-5.642129E-3,-2.0250994E-1,7.8253967E-1,9.3261175E-2,-2.3098743E-2,9.7397494E-4,-4.8990164E-2,-8.621686E-3,-6.864625E-2,9.573658E-2,6.8728E-3,4.0546667E-2],"categories":[],"categories_nodes":[],"categories_segments":[],"categories_sizes":[],"default_left":[0,0,0,0,0,0,0,0,0,0,0,0,0,0,0],"id":73,"left_children":[1,3,5,7,9,11,13,-1,-1,-1,-1,-1,-1,-1,-1],"loss_changes":[1.5360609E1,1.535207E1,8.985817E0,8.840364E0,1.5632978E1,5.6160717E0,7.5106516E0,0E0,0E0,0E0,0E0,0E0,0E0,0E0,0E0],"parents":[2147483647,0,0,1,1,2,2,3,3,4,4,5,5,6,6],"right_children":[2,4,6,8,10,12,14,-1,-1,-1,-1,-1,-1,-1,-1],"split_conditions":[6.156775E1,-1.5285939E-4,-1.2910213E-7,-3.147791E-3,-6.070781E-6,-5.802384E-3,4.286541E-2,-2.3098743E-2,9.7397494E-4,-4.8990164E-2,-8.621686E-3,-6.864625E-2,9.573658E-2,6.8728E-3,4.0546667E-2],"split_indices":[2,24,25,0,0,4,8,0,0,0,0,0,0,0,0],"split_type":[0,0,0,0,0,0,0,0,0,0,0,0,0,0,0],"sum_hessian":[4.0183157E3,3.016788E3,1.0015275E3,2.5487744E3,4.680137E2,1.8308767E1,9.832188E2,1.6196481E2,2.3868096E3,1.338994E2,3.3411432E2,1.6359462E0,1.6672821E1,9.127174E2,7.050139E1],"tree_param":{"num_deleted":"0","num_feature":"32","num_nodes":"15","size_leaf_vector":"1"}},{"base_weights":[8.172399E-3,-1.376847E-2,1.5884809E-1,1.0985839E-1,-3.7440643E-2,2.0820527E-1,-1.5356047E-1,-2.402904E-2,2.5790198E-2,-1.2840265E-2,6.2427745E-4,1.7071804E-2,5.8925666E-2,6.4048097E-3,-4.5585588E-2],"categories":[],"categories_nodes":[],"categories_segments":[],"categories_sizes":[],"default_left":[0,0,0,0,0,0,0,0,0,0,0,0,0,0,0],"id":74,"left_children":[1,3,5,7,9,11,13,-1,-1,-1,-1,-1,-1,-1,-1],"loss_changes":[1.3374557E1,1.0339727E1,7.9610634E0,2.9496712E1,1.1781856E1,6.248724E0,4.6821504E0,0E0,0E0,0E0,0E0,0E0,0E0,0E0,0E0],"parents":[2147483647,0,0,1,1,2,2,3,3,4,4,5,5,6,6],"right_children":[2,4,6,8,10,12,14,-1,-1,-1,-1,-1,-1,-1,-1],"split_conditions":[6.883881E1,-8.8629883E-4,2.9287102E0,-2.6766518E-3,-3.5899665E-4,8.003328E1,1.0071304E0,-2.402904E-2,2.5790198E-2,-1.2840265E-2,6.2427745E-4,1.7071804E-2,5.8925666E-2,6.4048097E-3,-4.5585588E-2],"split_indices":[2,22,20,0,0,6,7,0,0,0,0,0,0,0,0],"split_type":[0,0,0,0,0,0,0,0,0,0,0,0,0,0,0],"sum_hessian":[4.0439333E3,3.530712E3,5.132214E2,5.6682947E2,2.9638823E3,4.434885E2,6.973286E1,1.6825471E2,3.9857474E2,9.6095197E2,2.0029304E3,4.0508493E2,3.8403584E1,4.1004047E1,2.8728804E1],"tree_param":{"num_deleted":"0","num_feature":"32","num_nodes":"15","size_leaf_vector":"1"}},{"base_weights":[-5.051131E-3,1.7959904E-2,-1.5213E-1,1.1544299E-3,3.8597044E-1,-2.3940068E-1,1.9447613E-1,-3.7898824E-3,1.0816507E-2,-6.517389E-2,4.3210346E-2,7.222354E-2,-2.6707813E-2,3.9853174E-2,-2.3069961E-2],"categories":[],"categories_nodes":[],"categories_segments":[],"categories_sizes":[],"default_left":[0,0,0,0,0,0,0,0,0,0,0,0,0,0,0],"id":75,"left_children":[1,3,5,7,9,11,13,-1,-1,-1,-1,-1,-1,-1,-1],"loss_changes":[1.3621342E1,2.1524435E1,1.6516531E1,1.3918096E1,7.557848E0,1.178179E1,9.641643E0,0E0,0E0,0E0,0E0,0E0,0E0,0E0,0E0],"parents":[2147483647,0,0,1,1,2,2,3,3,4,4,5,5,6,6],"right_children":[2,4,6,8,10,12,14,-1,-1,-1,-1,-1,-1,-1,-1],"split_conditions":[1.001474E0,2.0002676E-2,3.7125655E-2,6.032456E-4,1.83E-6,-6.114576E-3,1.0050755E0,-3.7898824E-3,1.0816507E-2,-6.517389E-2,4.3210346E-2,7.222354E-2,-2.6707813E-2,3.9853174E-2,-2.3069961E-2],"split_indices":[3,8,8,0,30,4,3,0,0,0,0,0,0,0,0],"split_type":[0,0,0,0,0,0,0,0,0,0,0,0,0,0,0],"sum_hessian":[4.0228926E3,3.4794045E3,5.434879E2,3.3284133E3,1.5099132E2,4.3441693E2,1.0907097E2,2.438965E3,8.894482E2,5.868084E0,1.4512323E2,1.1451366E1,4.2296555E2,7.374231E1,3.5328655E1],"tree_param":{"num_deleted":"0","num_feature":"32","num_nodes":"15","size_leaf_vector":"1"}},{"base_weights":[9.009843E-3,4.5603743E-1,-3.7981689E-3,-5.692199E-1,5.688752E-1,-2.4044578E-1,2.3836488E-2,-6.8567875E-3,-1.1253267E-1,8.230487E-2,2.9200977E-2,-9.451018E-3,-4.3300647E-2,1.8503118E-2,-1.8222826E-3],"categories":[],"categories_nodes":[],"categories_segments":[],"categories_sizes":[],"default_left":[0,0,0,0,0,0,0,0,0,0,0,0,0,0,0],"id":76,"left_children":[1,3,5,7,9,11,13,-1,-1,-1,-1,-1,-1,-1,-1],"loss_changes":[2.290095E1,1.3212339E1,2.5439064E1,3.1372938E0,6.8575363E0,1.1389391E1,2.3619434E1,0E0,0E0,0E0,0E0,0E0,0E0,0E0,0E0],"parents":[2147483647,0,0,1,1,2,2,3,3,4,4,5,5,6,6],"right_children":[2,4,6,8,10,12,14,-1,-1,-1,-1,-1,-1,-1,-1],"split_conditions":[9.966034E-1,-6.674035E-2,-1.7511593E-2,-1.1397755E1,-1.86E-6,9.9875987E-1,9.99362E-1,-6.8567875E-3,-1.1253267E-1,8.230487E-2,2.9200977E-2,-9.451018E-3,-4.3300647E-2,1.8503118E-2,-1.8222826E-3],"split_indices":[3,8,8,21,29,3,3,0,0,0,0,0,0,0,0],"split_type":[0,0,0,0,0,0,0,0,0,0,0,0,0,0,0],"sum_hessian":[3.9984895E3,1.10407875E2,3.8880818E3,1.0545513E1,9.9862366E1,4.0575174E2,3.48233E3,6.140574E0,4.404939E0,5.103628E1,4.882608E1,2.3166844E2,1.7408331E2,7.198945E2,2.7624355E3],"tree_param":{"num_deleted":"0","num_feature":"32","num_nodes":"15","size_leaf_vector":"1"}},{"base_weights":[2.4158983E-3,-6.0003355E-2,6.4169884E-2,-4.2036038E-2,-5.0736415E-1,3.3502182E-1,2.6502116E-2,-1.8055832E-2,1.6217098E-3,-5.8383204E-2,4.4802394E-2,1.9605907E-2,6.421463E-2,-1.3841507E-2,8.205734E-3],"categories":[],"categories_nodes":[],"categories_segments":[],"categories_sizes":[],"default_left":[0,0,0,0,0,0,0,0,0,0,0,0,0,0,0],"id":77,"left_children":[1,3,5,7,9,11,13,-1,-1,-1,-1,-1,-1,-1,-1],"loss_changes":[1.5387997E1,1.5936768E1,2.0464373E1,1.5413736E1,5.855421E0,1.0326899E1,1.6162098E1,0E0,0E0,0E0,0E0,0E0,0E0,0E0,0E0],"parents":[2147483647,0,0,1,1,2,2,3,3,4,4,5,5,6,6],"right_children":[2,4,6,8,10,12,14,-1,-1,-1,-1,-1,-1,-1,-1],"split_conditions":[4.9793793E1,1.0016631E0,9.9922085E-1,-2.7218567E-2,7.612238E1,-3.4709554E-3,-4.8032103E-4,-1.8055832E-2,1.6217098E-3,-5.8383204E-2,4.4802394E-2,1.9605907E-2,6.421463E-2,-1.3841507E-2,8.205734E-3],"split_indices":[2,3,3,13,11,14,0,0,0,0,0,0,0,0,0],